<?xml version="1.0"?>
<opencv_storage>
<my_svm type_id="opencv-ml-svm">
  <svm_type>C_SVC</svm_type>
  <kernel><type>LINEAR</type></kernel>
  <C>1.0000000000000000e-002</C>
  <term_criteria><epsilon>1.1920928955078125e-007</epsilon>
    <iterations>2147483647</iterations></term_criteria>
  <var_all>1764</var_all>
  <var_count>1764</var_count>
  <class_count>3</class_count>
  <class_labels type_id="opencv-matrix">
    <rows>1</rows>
    <cols>3</cols>
    <dt>i</dt>
    <data>
      -1 0 1</data></class_labels>
  <sv_total>3</sv_total>
  <support_vectors>
    <_>
      2.81736883e-003 5.97390113e-004 7.53889268e-004 9.70881898e-004
      1.72546424e-003 1.04077556e-003 5.23220806e-004 3.11004609e-004
      2.67468207e-003 2.27301684e-003 2.17056542e-004 3.18134204e-004
      4.65305318e-004 1.53914338e-003 8.42038076e-004 4.43123747e-004
      1.97432222e-004 2.27780570e-003 1.31180719e-003 5.23645082e-004
      5.27407334e-004 8.11103091e-004 1.74705219e-003 1.69398740e-003
      8.02565017e-004 3.83115344e-004 1.12219807e-003 1.30451936e-003
      2.89174379e-004 3.80649202e-004 6.77682983e-004 1.62881368e-003
      1.15865667e-003 4.92207939e-004 2.00468508e-004 1.21578982e-003
      2.48655374e-003 3.95570067e-004 7.97617715e-004 1.20957592e-003
      2.09969655e-003 9.57586803e-004 5.97355713e-004 2.92338780e-004
      2.38458044e-003 2.44877883e-003 2.47573596e-004 2.40294190e-004
      2.74182181e-004 1.70455911e-004 7.01765530e-005 4.70084524e-005
      3.29606555e-005 2.33893166e-003 1.29788241e-003 2.40520953e-004
      4.02419741e-004 1.18980673e-003 2.04143929e-003 1.23015314e-003
      5.21188544e-004 3.08084447e-004 1.34287414e-003 1.33245380e-003
      2.97762046e-004 2.56155123e-004 2.80021632e-004 1.66506332e-004
      9.27905712e-005 5.43329588e-005 6.35673059e-005 1.28604018e-003
      2.28040130e-003 5.38813125e-004 6.52875286e-004 7.48523627e-004
      3.50997783e-004 8.37598345e-005 5.74272417e-005 5.07503573e-005
      2.18983460e-003 2.18833145e-003 4.19437274e-004 5.67110837e-004
      6.74071256e-004 3.43311753e-004 9.94125294e-005 6.97109572e-005
      5.47363379e-005 2.19423883e-003 1.33275008e-003 2.42766720e-004
      2.01860166e-004 2.38628651e-004 2.16821194e-004 1.55989226e-004
      8.56942934e-005 9.40982354e-005 1.32930523e-003 1.16065727e-003
      9.56664735e-005 7.40252653e-005 1.13042843e-004 2.01504663e-004
      1.63003075e-004 1.02752078e-004 7.93078943e-005 1.18123461e-003
      2.28975806e-003 6.62373495e-005 1.05991276e-004 1.29100255e-004
      1.52923385e-004 1.66824189e-004 1.29250198e-004 7.35055874e-005
      2.32533272e-003 2.40383786e-003 8.90150986e-005 9.29266462e-005
      6.06250287e-005 2.26068281e-004 2.26870499e-004 2.21574257e-004
      2.20717542e-004 2.51331646e-003 1.04286976e-003 7.52652559e-005
      7.84072181e-005 1.13214643e-004 1.27803287e-004 9.14105985e-005
      6.58323261e-005 4.16927433e-005 1.05370092e-003 1.12910627e-003
      1.26748360e-004 1.27792475e-004 1.90141567e-004 2.46642332e-004
      2.13339765e-004 2.15051899e-004 1.63788034e-004 1.12568587e-003
      2.23326916e-003 2.01978211e-004 1.88998863e-004 2.89120711e-004
      9.31223040e-004 4.31680062e-004 2.50675832e-004 3.56494478e-004
      2.27770815e-003 3.08181602e-003 7.28938205e-004 9.31333925e-004
      1.42157997e-003 2.08903849e-003 1.37024571e-003 5.67972544e-004
      7.22801720e-004 3.13667930e-003 1.23365491e-003 1.18376433e-004
      9.70939946e-005 2.18627698e-004 7.78947200e-004 4.22608806e-004
      2.98056402e-004 2.54552957e-004 1.21184113e-003 2.15518847e-003
      5.23858529e-004 7.54604582e-004 1.20998174e-003 1.67847960e-003
      1.63293851e-003 1.06628879e-003 5.71193232e-004 1.96710345e-003
      2.01575365e-003 8.01821414e-004 9.06452653e-004 1.07714976e-003
      1.95928710e-003 7.88517413e-004 5.55963081e-004 5.95970429e-004
      1.98169169e-003 2.44468497e-003 3.54335178e-004 3.76395299e-004
      1.21080619e-003 5.13497833e-003 3.33599467e-003 2.03376985e-003
      1.80626952e-003 2.42114835e-003 1.53004646e-003 5.11699647e-004
      4.64348355e-004 5.59991982e-004 1.54427427e-003 9.45143402e-004
      9.08921764e-004 7.23246427e-004 1.45498978e-003 1.60412828e-003
      3.42604093e-004 3.80567682e-004 3.92317015e-004 3.22197285e-003
      1.65083329e-003 6.02488872e-004 5.11334976e-004 1.68357871e-003
      1.66086922e-003 1.52934168e-004 1.89943719e-004 5.02507901e-004
      2.59060995e-003 2.30502523e-003 1.43548823e-003 1.17937382e-003
      2.18296470e-003 2.37634056e-003 1.23681326e-004 1.42531557e-004
      2.76936917e-004 2.81793135e-003 3.10723158e-003 2.65265489e-003
      2.41033896e-003 2.83080712e-003 1.08679489e-003 1.26965009e-004
      1.26862753e-004 2.17507375e-004 1.44412112e-003 1.30263541e-003
      7.93903018e-004 4.75411071e-004 1.43554818e-003 1.21752592e-003
      1.54470792e-004 1.74087705e-004 3.28961265e-004 2.89178430e-003
      1.97452959e-003 1.80490920e-003 1.20852329e-003 1.83241908e-003
      1.59093784e-003 3.15684709e-004 3.29219445e-004 8.77415703e-004
      1.94748351e-003 1.90384162e-003 5.63509238e-004 4.06142790e-004
      1.63969607e-003 1.68678758e-003 2.32465754e-004 2.86387949e-004
      7.46457663e-004 1.03879930e-003 7.57513277e-004 3.45640205e-004
      2.06479890e-004 1.66322081e-003 2.04993365e-003 3.27946211e-004
      3.73153656e-004 1.36668351e-003 1.95885240e-003 1.37712562e-003
      5.52317011e-004 4.12994530e-004 2.12450442e-003 2.08537793e-003
      3.73848132e-004 5.41770190e-004 7.43856130e-004 1.06750359e-003
      4.28566069e-004 3.96545132e-004 2.07922290e-004 2.14122469e-003
      1.50148419e-003 4.34117246e-004 6.18322694e-004 1.57773914e-003
      2.05205451e-003 8.95207690e-004 6.11371303e-004 4.07552638e-004
      1.67618599e-003 1.38301426e-003 8.29786703e-004 5.05690230e-004
      8.30296078e-004 7.23402423e-004 6.72288123e-004 4.07222280e-004
      3.82949744e-004 1.33059977e-003 1.79686630e-003 4.61859978e-004
      1.18326314e-003 1.36495137e-003 1.99274183e-003 7.26900180e-004
      1.17861060e-003 4.38858027e-004 1.93059631e-003 1.80199090e-003
      3.40409257e-004 3.56186851e-004 3.48722766e-004 3.47909459e-004
      3.58962570e-004 3.93058115e-004 1.91677580e-004 2.20745825e-003
      1.29119819e-003 6.20438193e-004 3.76947311e-004 6.49321068e-004
      6.10243122e-004 5.92734374e-004 2.55032908e-004 3.27472400e-004
      1.28912099e-003 1.29753200e-003 3.06119415e-004 2.81806599e-004
      4.27430845e-004 6.29900722e-004 5.91973192e-004 2.53911276e-004
      2.41966016e-004 1.29285222e-003 1.70786097e-003 2.46385578e-004
      2.83868023e-004 3.31922813e-004 3.94991715e-004 2.58497603e-004
      1.41521770e-004 1.15632589e-004 1.89323875e-003 2.11586989e-003
      2.41937450e-004 3.27436457e-004 2.87991395e-004 4.24848316e-004
      1.87606551e-004 6.84931656e-005 9.64642459e-005 2.11904291e-003
      1.38987193e-003 3.74446216e-004 5.97629871e-004 6.23496016e-004
      1.02525146e-003 7.64160533e-004 3.66177876e-004 2.29211990e-004
      1.38437492e-003 1.63444038e-003 7.29251420e-004 9.27497284e-004
      1.11475785e-003 1.38719694e-003 7.02415651e-004 6.03043649e-004
      4.20958531e-004 1.50048372e-003 1.04199548e-003 2.47622491e-004
      4.09269793e-004 3.20253894e-004 6.38881931e-004 2.98150058e-004
      2.53269245e-004 2.65330949e-004 9.87070031e-004 1.38780486e-003
      6.93763548e-004 6.72950351e-004 7.22291938e-004 8.77455925e-004
      5.73303434e-004 5.76177612e-004 4.78000497e-004 1.18266942e-003
      1.41918473e-003 4.02227306e-004 3.84373474e-004 9.36464523e-004
      1.47759670e-003 8.08883226e-004 5.31822850e-004 4.17104078e-004
      1.41972152e-003 2.18637846e-003 8.37848289e-004 1.22248020e-003
      2.12150277e-003 2.72613647e-003 2.14829482e-003 1.65002455e-003
      1.27496768e-003 2.29389453e-003 1.02911331e-003 3.08414601e-004
      3.79331934e-004 7.51680986e-004 1.27518899e-003 5.27249649e-004
      2.46663170e-004 1.61182892e-004 9.59567435e-004 1.52073905e-003
      6.80338533e-004 9.97883035e-004 2.03101570e-003 2.62180995e-003
      2.02396209e-003 8.28525051e-004 7.50603445e-004 1.63828337e-003
      1.71485997e-003 8.92635377e-004 9.74372728e-004 1.40866719e-003
      2.52917525e-003 1.94623915e-003 1.39456976e-003 1.21975329e-003
      1.69681886e-003 1.60065515e-003 8.41810426e-004 9.25349945e-004
      1.86466111e-003 3.78760765e-003 1.58974295e-003 5.99298917e-004
      5.64518210e-004 1.37580105e-003 1.18045951e-003 6.89594075e-004
      7.42837030e-004 1.43229286e-003 2.34204344e-003 1.54271314e-003
      8.74666614e-004 8.82065622e-004 1.30759156e-003 1.60081324e-003
      1.01368071e-003 9.83115053e-004 3.29900719e-003 4.83249640e-003
      2.82400008e-003 9.80673125e-004 7.90195656e-004 1.36426568e-003
      9.72300768e-004 2.27661774e-004 2.86044640e-004 5.91337564e-004
      2.01525190e-003 9.53269831e-004 4.15721821e-004 2.20787697e-004
      1.30252016e-003 1.27180782e-003 3.20155581e-004 5.55853476e-004
      1.34800922e-003 3.81469959e-003 2.83560553e-003 2.33986927e-003
      8.93333927e-004 2.17458443e-003 1.17792946e-003 2.53071426e-004
      3.27032729e-004 8.83391418e-004 2.02865642e-003 8.83505971e-004
      3.58960417e-004 3.14782723e-004 1.26370916e-003 1.52013719e-003
      2.88635289e-004 7.29314925e-004 1.27514510e-003 3.89347551e-003
      3.49383941e-003 1.92728371e-003 8.57684354e-004 1.77139626e-003
      1.70282496e-003 5.44715789e-004 5.54685015e-004 1.05550012e-003
      1.58006081e-003 1.12949975e-003 4.57505754e-004 3.18581588e-004
      1.80750398e-003 1.56149187e-003 4.16606810e-004 5.18629211e-004
      4.22045909e-004 1.12515339e-003 4.32337343e-004 3.09202791e-004
      2.21162583e-004 1.49669184e-003 5.96987177e-003 1.71306892e-003
      2.26001628e-003 1.39544357e-003 3.19031067e-003 2.59542116e-003
      2.48585222e-003 1.69895112e-003 5.93968900e-003 4.75694332e-003
      1.23450276e-003 1.87470240e-003 1.54143409e-003 3.51491687e-003
      2.16543721e-003 1.85928470e-003 1.41045963e-003 4.92736557e-003
      1.55470672e-003 2.48686876e-004 6.15806493e-004 3.83508479e-004
      1.40856393e-003 3.22393433e-004 3.56159959e-004 2.30580743e-004
      1.66536111e-003 1.88168208e-003 8.62331479e-004 4.23900929e-004
      2.80256616e-004 1.02614250e-003 3.05151654e-004 1.91164640e-004
      2.70661578e-004 3.02298297e-003 5.58178918e-003 7.67030229e-004
      9.89164808e-004 1.12292916e-003 5.07590361e-003 1.69781246e-003
      2.24509789e-003 1.28016341e-003 5.16943540e-003 4.56417538e-003
      1.47003541e-003 1.74286810e-003 2.00743508e-003 2.72331410e-003
      2.28893408e-003 8.73559271e-004 9.78892087e-004 4.59220912e-003
      1.71887735e-003 4.96078981e-004 5.38024469e-004 4.14369220e-004
      9.74891824e-004 7.18904659e-004 2.89398333e-004 2.68429663e-004
      2.44073663e-003 1.80653925e-003 1.83723721e-004 5.29883255e-004
      3.76500655e-004 8.05930002e-004 5.48824668e-004 1.94726803e-004
      8.26261312e-005 2.44462374e-003 4.81202547e-003 9.00339510e-004
      1.27580576e-003 1.78018445e-003 2.88878102e-003 2.18116259e-003
      8.63507972e-004 1.27534068e-003 5.09738084e-003 4.38591000e-003
      4.86283971e-004 8.61909066e-004 1.02448533e-003 1.94265659e-003
      7.50335399e-004 5.32753824e-004 3.54685530e-004 4.57231561e-003
      2.37094285e-003 5.21618022e-005 6.95091847e-004 3.63340776e-004
      9.74019931e-004 3.47289752e-004 3.62449267e-004 1.38594856e-004
      3.02790990e-003 1.47162692e-003 4.05198625e-005 5.74416117e-005
      7.27360384e-005 3.30460025e-004 7.28288083e-004 1.78746181e-004
      8.50404249e-005 1.41825166e-003 5.47939772e-003 3.73685471e-004
      1.01300387e-003 1.92702503e-003 3.92320100e-003 1.08445832e-003
      1.55076804e-003 5.03647432e-004 5.50587801e-003 3.17788101e-003
      3.97750773e-005 4.02953592e-005 5.26064578e-005 3.19642539e-004
      1.60127878e-004 1.92591222e-004 1.78250353e-004 3.30377859e-003
      1.73453416e-003 6.51128430e-005 2.84406211e-004 1.55346512e-004
      4.03762446e-004 4.80603921e-004 1.75368215e-004 1.22980797e-004
      2.22682534e-003 1.80716510e-003 2.01530216e-004 5.89571719e-004
      3.82335158e-004 1.13271072e-003 1.17975892e-003 7.97935703e-004
      4.34215850e-004 2.43464392e-003 2.73221312e-003 8.66157861e-005
      9.20689708e-005 1.09712637e-004 3.47108929e-004 6.75797113e-004
      5.01199451e-004 4.72697662e-004 2.81460374e-003 2.72235903e-003
      1.93943211e-004 2.65085400e-004 2.73450016e-004 1.13768363e-003
      1.54811435e-003 1.34332688e-003 7.37202470e-004 2.74595222e-003
      1.88889483e-003 8.03374860e-004 6.09581592e-004 5.08241588e-004
      1.42318057e-003 8.47594696e-004 7.73535692e-004 9.58886929e-004
      2.26327660e-003 1.23858778e-003 6.50157570e-004 6.90529647e-004
      1.45155995e-003 3.96548212e-003 2.21050857e-003 7.54280423e-004
      5.70944510e-004 1.30584906e-003 2.46846606e-003 1.29606109e-004
      2.01359653e-004 2.88354495e-004 1.01040909e-003 1.16697676e-003
      7.92540319e-004 4.71610081e-004 2.50766170e-003 2.64494889e-003
      4.13376547e-004 5.21323935e-004 7.12510431e-004 3.76813370e-003
      1.58479414e-003 1.03432790e-003 9.69723624e-004 2.65158247e-003
      1.29319320e-003 3.05854075e-004 3.82585451e-004 7.48027756e-004
      1.71021628e-003 9.66777036e-004 4.81323368e-004 3.25367175e-004
      1.06963154e-003 1.54510071e-003 6.25605287e-004 9.07927635e-004
      1.37848954e-003 3.69978556e-003 3.62542761e-003 2.04896973e-003
      8.52575118e-004 1.19044830e-003 1.59064191e-003 4.37555747e-004
      3.33406992e-004 6.73146627e-004 1.86737988e-003 1.09351554e-003
      8.99524079e-004 8.82805849e-004 1.96211855e-003 1.60442537e-003
      1.18519249e-003 8.89199961e-004 1.49587949e-003 3.74549092e-003
      3.30931344e-003 1.48265169e-003 6.46679837e-004 1.46473839e-003
      4.38194908e-003 5.70684904e-004 8.85868154e-004 6.03506982e-004
      2.54691136e-003 1.84568088e-003 1.39625918e-003 9.26390814e-004
      4.49819583e-003 3.59245739e-003 6.58488192e-004 1.06079865e-003
      9.10666538e-004 3.16093978e-003 1.21280178e-003 9.86177940e-004
      7.78271409e-004 3.75038222e-003 4.35306318e-003 8.35336396e-004
      1.04898121e-003 8.01031420e-004 3.07947583e-003 1.57076097e-003
      1.26216596e-003 8.39656801e-004 4.09573829e-003 3.47201782e-003
      9.51249676e-004 1.40872260e-003 1.13602460e-003 3.85732902e-003
      1.42579863e-003 7.60489202e-004 6.40808197e-004 3.35035124e-003
      3.38028139e-003 5.31556550e-004 7.52290420e-004 7.26356637e-004
      3.25600826e-003 1.10665034e-003 5.84431400e-004 5.46271913e-004
      3.54593992e-003 3.56249837e-003 8.40026594e-004 1.06634211e-003
      1.26258389e-003 2.12507299e-003 1.79682241e-003 8.81403277e-004
      7.10962981e-004 3.28226946e-003 2.53586727e-003 7.76199158e-004
      1.27866934e-003 8.91657313e-004 5.57857752e-003 1.20527216e-003
      5.90370444e-004 4.50855849e-004 2.62059155e-003 2.60279770e-003
      7.89673533e-004 1.04237348e-003 1.24689541e-003 2.08154507e-003
      1.71615009e-003 1.19606650e-003 1.03162951e-003 2.34726653e-003
      3.94684123e-003 6.34057797e-004 7.84592703e-004 1.19706430e-003
      2.37778621e-003 1.68385042e-003 6.35392324e-004 5.73750993e-004
      3.51677835e-003 3.60857998e-003 4.09543194e-004 5.71784854e-004
      1.07474730e-003 1.58540066e-003 3.48861940e-004 2.64796516e-004
      2.38508554e-004 3.39256902e-003 3.14192451e-003 5.48330660e-004
      7.70455634e-004 1.59097719e-003 2.31509143e-003 1.41451764e-003
      8.93550867e-004 7.07599742e-004 2.64439802e-003 3.01980739e-003
      4.31351742e-004 5.61655965e-004 1.05560676e-003 1.55384175e-003
      3.87295499e-004 3.19804298e-004 5.02751267e-004 2.63149291e-003
      3.54335038e-003 4.75007488e-004 8.10916943e-004 1.78017525e-003
      3.21792439e-003 4.42850054e-004 5.42262744e-004 3.55517695e-004
      3.66589241e-003 2.83279759e-003 8.68443822e-005 5.92630022e-005
      5.68498872e-005 2.81809218e-004 2.70324235e-004 2.84903392e-004
      2.85565155e-004 3.01099010e-003 3.03360005e-003 6.86826126e-004
      1.09159003e-003 1.65441481e-003 2.97297351e-003 6.48926885e-004
      7.50204257e-004 1.05991762e-003 2.94215675e-003 1.93880126e-003
      7.98126712e-005 1.38838339e-004 4.37447343e-005 2.39216824e-004
      2.01426694e-004 3.19527142e-004 1.09729175e-004 1.95380044e-003
      2.42845970e-003 1.03658153e-004 9.61739424e-005 8.55780308e-005
      2.39879955e-004 7.44767080e-004 4.86786972e-004 4.12237365e-004
      2.47274782e-003 2.47323071e-003 6.46062617e-005 9.70887268e-005
      5.99929153e-005 3.77276505e-004 8.44197697e-004 8.00082460e-004
      7.29009043e-004 2.48617237e-003 1.88632484e-003 6.36671393e-005
      1.27622930e-004 2.11876068e-005 8.46994226e-005 2.44778581e-004
      3.29017348e-004 1.85973127e-004 1.95564236e-003 2.29823426e-003
      6.89529406e-005 1.46097867e-004 1.89032398e-005 1.34950737e-004
      3.36677098e-004 4.06528008e-004 4.07382555e-004 2.62017827e-003
      2.38084770e-003 6.41404331e-005 8.95715639e-005 8.98904254e-005
      1.74638233e-004 3.38025449e-004 2.45517615e-004 2.47907708e-004
      2.40872125e-003 2.43538083e-003 6.64133113e-005 1.17583979e-004
      1.56930299e-004 4.33072913e-003 1.82782102e-003 1.03720278e-003
      8.38440901e-004 2.51068897e-003 2.34903512e-003 6.38398633e-005
      1.33432361e-004 3.42352250e-005 1.70424988e-004 2.24992560e-004
      3.22130654e-004 2.84802081e-004 2.54888623e-003 2.26944522e-003
      6.98594158e-005 1.49927728e-004 5.61514680e-005 7.34814559e-004
      1.29944878e-003 8.75030179e-004 8.07468547e-004 2.53227982e-003
      1.90538389e-003 6.21240935e-004 3.67979985e-004 7.26260594e-004
      1.99753884e-003 1.86394795e-003 1.50256907e-003 1.76998752e-003
      2.57262145e-003 1.87307294e-003 1.41575444e-003 1.36708224e-003
      1.48558605e-003 3.00516235e-003 1.84768508e-003 1.47304800e-003
      1.55059947e-003 1.93372264e-003 1.50201248e-003 1.20774079e-004
      1.35342852e-004 7.66641751e-005 1.74454332e-003 1.84693630e-003
      1.82377745e-003 1.76704617e-003 2.01994879e-003 8.88595066e-004
      2.18464789e-004 2.34764229e-004 1.93569431e-004 1.90853223e-003
      1.79664535e-003 1.38582150e-003 1.25205645e-003 1.41032075e-003
      3.84996342e-003 5.79496613e-004 8.67384486e-004 8.19907757e-004
      2.07889685e-003 1.16977142e-003 4.13742411e-004 3.16368794e-004
      3.77441687e-003 2.96368659e-003 4.12832334e-004 5.25497948e-004
      4.85153083e-004 2.50344072e-003 6.75351010e-004 3.87618726e-004
      2.61955225e-004 2.91226036e-003 4.86392714e-003 1.08537753e-003
      1.92713714e-003 1.15709729e-003 2.60995654e-003 9.26311477e-004
      1.54626474e-003 1.56182144e-003 4.93067596e-003 3.01864883e-003
      3.94355215e-004 8.40923050e-004 4.12200025e-004 3.52687528e-003
      8.05314397e-004 2.10832059e-003 1.40590884e-003 3.38502880e-003
      3.02725099e-003 7.42704782e-004 8.98865459e-004 8.88393144e-004
      3.13723157e-003 8.63571593e-004 6.39332109e-004 4.64612938e-004
      3.05511057e-003 2.83453264e-003 6.60800259e-004 9.25741042e-004
      9.08259593e-004 1.99572206e-003 1.21902768e-003 9.56029631e-004
      8.09994352e-004 2.76471907e-003 2.39556050e-003 5.45710500e-004
      9.90745728e-004 5.00832510e-004 5.39598754e-003 1.03043020e-003
      2.39917357e-003 1.28686510e-003 2.52943672e-003 2.41805008e-003
      1.14424410e-003 1.20691664e-003 1.21800334e-003 2.68239970e-003
      2.03514239e-003 6.91215624e-004 1.30510505e-003 2.28048279e-003
      3.52172414e-003 4.43975470e-004 8.19237204e-004 1.06382661e-003
      2.07371544e-003 1.33771612e-003 6.78286131e-004 7.32386077e-004
      3.32900276e-003 3.31520359e-003 3.64089443e-004 6.19760714e-004
      9.28430469e-004 1.32698263e-003 7.34623754e-004 5.50764322e-004
      5.52322192e-004 3.01800505e-003 2.60858890e-003 9.95272771e-004
      8.58619402e-004 1.31110474e-003 2.73817754e-003 1.64648867e-003
      5.63644688e-004 1.18559145e-003 2.21777731e-003 2.72571342e-003
      8.20333662e-004 6.83525635e-004 1.11517904e-003 2.15026643e-003
      7.32140266e-004 1.03852584e-003 7.22065801e-004 2.32252595e-003
      3.46647692e-003 4.35271795e-004 7.56397028e-004 1.22696476e-003
      2.93290592e-003 1.30779389e-003 1.04654499e-003 6.85543171e-004
      3.16494028e-003 3.82363424e-003 1.83841112e-004 2.54814717e-004
      1.48218445e-004 3.69888730e-004 1.48218445e-004 2.38537468e-004
      1.20682045e-004 3.82363424e-003 2.71596666e-003 6.33361982e-004
      1.29767449e-003 2.30726134e-003 3.23385373e-003 1.18492509e-003
      1.50059350e-003 8.08832643e-004 2.74613220e-003 1.55685691e-003
      1.01911712e-004 3.53870942e-004 2.26030083e-004 5.07075456e-004
      4.31911321e-005 1.53959336e-004 8.06209791e-005 1.86667242e-003
      2.42132484e-003 7.67446836e-005 2.02749317e-004 1.99364258e-005
      1.26591753e-004 1.23552090e-004 3.15267011e-004 1.15810413e-004
      2.43915780e-003 3.08764237e-003 2.14286585e-004 3.81038524e-004
      5.19763271e-004 8.63646972e-004 8.02894239e-004 6.49593887e-004
      3.52758128e-004 3.19641433e-003 1.09784398e-003 9.24341875e-005
      3.04534333e-004 1.46495368e-004 3.77619697e-004 2.87686107e-005
      1.87778453e-004 9.44567728e-005 1.42264727e-003 2.22642208e-003
      1.06691426e-004 3.19253129e-004 3.62958643e-004 1.25768618e-003
      9.28635010e-004 7.75421737e-004 4.10996989e-004 2.31854594e-003
      2.06471467e-003 7.19782474e-005 1.54290057e-004 9.57369193e-005
      3.63545987e-004 3.67507397e-004 4.49926563e-004 2.55115156e-004
      2.16642022e-003 2.23848317e-003 2.47525721e-004 3.49587266e-004
      3.85644526e-004 1.83910225e-003 2.27750000e-003 1.68799004e-003
      1.52252032e-003 2.43888423e-003 1.79621635e-003 8.54138343e-005
      2.32700273e-004 1.31305394e-004 6.75014046e-004 4.56227281e-004
      6.15327153e-004 4.52192180e-004 2.26707174e-003 1.34988374e-003
      2.09372389e-004 4.15388262e-004 3.93540919e-004 1.52807857e-003
      1.09119515e-003 8.35303217e-004 3.54596152e-004 1.44307222e-003
      8.12098151e-004 8.43291782e-005 1.94293229e-004 1.02701459e-004
      2.00799946e-003 1.78239215e-003 9.87915322e-004 7.54353008e-004
      1.06517167e-003 6.00236526e-004 8.11119899e-005 1.89218947e-004
      1.52366440e-004 2.29794648e-003 2.17729202e-003 1.17535039e-003
      7.36934657e-004 9.43601073e-004 1.21533684e-003 1.23565624e-004
      2.71115190e-004 1.64108860e-004 2.17696582e-003 1.60832203e-003
      7.82077434e-004 2.88569368e-004 1.09683757e-003 2.05779145e-003
      2.33353974e-004 6.11468509e-004 2.73796933e-004 2.46029883e-003
      2.12937687e-003 1.10110408e-003 7.08349515e-004 1.85403752e-003
      1.87722070e-003 4.20458207e-004 6.09652721e-004 7.03133352e-004
      1.27584022e-003 9.06670815e-004 7.77702720e-004 6.54112548e-004
      2.02778378e-003 1.87345268e-003 1.25568957e-004 1.78746588e-004
      3.29778617e-004 1.20407157e-003 8.62681016e-004 6.69516623e-004
      5.73374971e-004 1.96357490e-003 4.65137698e-003 6.68262714e-004
      7.22763711e-004 7.53631233e-004 1.48605998e-003 1.98117411e-003
      1.85449119e-003 1.65834883e-003 4.39758226e-003 4.67808452e-003
      6.29207760e-004 2.52696715e-004 4.20866621e-004 1.83682784e-003
      2.60313880e-003 1.75953936e-003 1.73645653e-003 4.67805518e-003
      1.50332844e-003 1.01652360e-004 1.26286206e-004 1.75872381e-004
      1.13041478e-003 6.32977637e-004 3.82111029e-004 2.91716628e-004
      1.57364376e-003 1.81880663e-003 1.85435987e-004 1.18328862e-004
      1.56814509e-004 8.84096487e-004 7.68445723e-004 9.34147174e-005
      1.35556154e-004 1.78377074e-003 5.06121712e-003 2.34139850e-004
      1.64082114e-004 2.01221628e-004 1.91003038e-003 2.36898544e-003
      1.45179417e-003 1.27881812e-003 5.05490461e-003 5.04379580e-003
      6.12342148e-004 6.10130955e-004 6.60147343e-004 1.01275614e-003
      7.41065771e-004 2.58146058e-004 2.79688044e-004 5.02933608e-003
      1.48154516e-003 2.09257298e-004 1.13572656e-004 2.22527742e-004
      1.06415036e-003 8.57642619e-004 1.48121937e-004 1.87942118e-004
      1.40013569e-003 6.81823003e-004 1.06283136e-004 8.04273368e-005
      1.66071681e-004 5.68801595e-004 1.71121093e-004 1.80514326e-004
      2.38035980e-004 7.55816174e-004 5.03740041e-003 6.12563977e-004
      5.76029881e-004 6.96110132e-004 1.70950359e-003 1.66420895e-003
      8.38481879e-004 6.58447738e-004 4.99678124e-003 5.00712963e-003
      3.33265722e-004 3.39097081e-004 4.24835715e-004 2.12477846e-003
      1.96088594e-003 1.26639346e-003 1.44426164e-003 5.00376383e-003
      5.67585579e-004 1.31790875e-004 2.21316906e-004 5.62249625e-004
      7.95106287e-004 1.02342288e-004 2.35869113e-004 2.00973431e-004
      6.85952080e-004 6.40176178e-004 6.61164959e-005 2.06336292e-004
      1.43505124e-004 3.50208720e-004 1.39732045e-004 1.84445220e-004
      8.34934181e-005 6.22142514e-004 6.22270117e-003 7.59028480e-005
      1.64840807e-004 4.18168376e-004 2.87851179e-003 1.35767797e-003
      9.04015265e-004 2.30376073e-003 6.22184807e-003 3.98089690e-003
      3.69456509e-004 5.28808800e-004 4.17669769e-004 5.62605448e-004
      4.00327961e-004 2.51703110e-004 2.72121077e-004 3.99448164e-003
      7.76463887e-004 7.67479360e-005 1.90614490e-004 6.73649556e-005
      1.81697033e-004 4.67157115e-005 2.00009861e-004 8.80631633e-005
      7.52214866e-004 1.29115803e-003 1.23063437e-004 2.62190966e-004
      2.96152168e-004 1.12525024e-003 1.03891222e-003 1.03973958e-003
      4.56084439e-004 1.44060655e-003 5.79274911e-003 5.57069900e-004
      7.26661819e-004 4.24078258e-004 7.34291913e-004 1.33583054e-003
      1.02265144e-003 1.04005612e-003 5.79113793e-003 5.31744538e-003
      1.15720870e-003 1.39218196e-003 9.14558070e-004 1.81740790e-003
      1.34942995e-003 9.25071072e-004 1.01134996e-003 6.07714476e-003
      8.39709886e-004 1.32666450e-004 3.25643312e-004 2.23272451e-004
      6.92576868e-004 4.12875146e-004 4.56914247e-004 1.56587746e-004
      8.78728577e-004 1.42445776e-003 6.05820678e-004 1.39674393e-003
      1.64276827e-003 2.38470617e-003 1.29347644e-003 1.21397746e-003
      8.66824994e-004 1.31106155e-003 5.11593884e-003 8.82493623e-004
      6.25255052e-004 4.11804300e-004 1.35309121e-003 1.09779555e-003
      1.36948167e-003 1.32623594e-003 5.55909704e-003 6.46787556e-003
      1.00144336e-003 1.61788799e-003 1.78925903e-003 2.86104018e-003
      2.37659947e-003 1.69549801e-003 1.61035871e-003 6.64517982e-003
      8.44786351e-004 1.29518041e-004 2.39040484e-004 1.88157850e-004
      2.33608088e-003 9.88370855e-004 3.85371037e-004 1.49283544e-004
      8.26420786e-004 1.37442932e-003 2.06339668e-004 3.91023845e-004
      3.56494420e-004 2.82569439e-003 1.70062948e-003 6.37620629e-004
      1.17144744e-004 1.28373958e-003 6.74513541e-003 5.27253665e-004
      6.43339241e-004 7.89804792e-004 3.14047653e-003 9.67213651e-004
      6.19148836e-004 1.19516591e-003 6.98467437e-003 4.22526617e-003
      1.09827169e-003 9.94612463e-004 1.22743903e-003 3.60358693e-003
      2.18473747e-003 9.73298564e-004 8.08055804e-004 4.41916613e-003
      4.23638849e-003 8.14765343e-004 9.92899179e-004 8.15634558e-004
      1.23629835e-003 1.97037216e-003 1.98036642e-003 1.81909965e-003
      4.33701277e-003 4.66575800e-003 6.52957358e-004 8.14444385e-004
      7.22885132e-004 1.66465668e-003 2.61421874e-003 2.27502361e-003
      2.25807540e-003 4.71004751e-003 1.74730900e-003 3.41921754e-004
      3.99460056e-004 3.13449709e-004 5.10003709e-004 6.03211462e-004
      4.49120125e-004 3.32767522e-004 1.98436156e-003 2.28537829e-003
      4.58831462e-004 5.06549084e-004 4.03994025e-004 6.11060997e-004
      1.00941258e-003 6.52539195e-004 5.61767956e-004 2.30468996e-003
      5.12598967e-003 2.89758318e-004 2.52748898e-004 2.23367562e-004
      8.08167737e-004 7.43113982e-004 5.09381702e-004 4.99472953e-004
      5.09498687e-003 5.07829990e-003 2.27059907e-004 2.30232123e-004
      2.07640172e-004 1.04678632e-003 9.48953792e-004 2.05297634e-004
      1.92753636e-004 5.05494280e-003 2.44902098e-003 1.61981443e-004
      1.43792582e-004 1.29366992e-004 4.22447833e-004 2.72489589e-004
      1.58183218e-004 1.64347715e-004 2.43327301e-003 2.39604036e-003
      1.64295212e-004 2.03339063e-004 1.45053345e-004 8.32622580e-004
      7.35430513e-004 3.59005717e-005 4.53867870e-005 2.40258663e-003
      4.04445454e-003 3.98627337e-004 5.00757364e-004 4.56339883e-004
      1.41004717e-003 1.71120279e-003 6.66490523e-004 5.74676611e-004
      4.01603291e-003 3.85902566e-003 1.95037806e-004 2.36802021e-004
      2.40767637e-004 1.97825185e-003 2.15056166e-003 1.63233071e-003
      1.50815037e-003 4.02083201e-003 2.27201497e-003 2.52467144e-004
      3.30289011e-004 2.74131104e-004 8.52893223e-004 8.06890603e-004
      1.45844344e-004 2.13271778e-004 2.36690603e-003 3.33661982e-003
      1.18264201e-004 1.46249076e-004 1.38372081e-004 1.70446478e-003
      1.69758836e-003 1.13298337e-003 9.42507002e-004 3.52901733e-003
      3.40286200e-003 1.98202160e-005 4.65606172e-005 1.19938893e-004
      1.51465368e-003 1.06804434e-003 1.00577378e-003 6.25308137e-004
      3.65616940e-003 3.33262072e-003 2.28736841e-004 2.29316123e-004
      2.61292327e-004 5.11595339e-004 5.46884257e-004 3.23107146e-004
      2.75770813e-004 3.33045959e-003 3.85477603e-003 3.35854857e-005
      5.17232911e-005 6.16650432e-005 1.93205499e-003 1.76841125e-003
      1.78632513e-003 9.11150360e-004 3.96106066e-003 4.26903041e-003
      1.20099176e-004 8.68847201e-005 1.32584784e-004 5.63984038e-004
      4.48209932e-004 3.45194800e-004 2.31257713e-004 4.46165726e-003
      3.04820063e-003 6.06231275e-004 7.17951683e-004 4.68409242e-004
      5.48820361e-004 1.00881665e-003 6.07806898e-004 5.30776160e-004
      3.03751975e-003 3.18735652e-003 6.10212388e-004 1.36153004e-003
      1.15935691e-003 1.46478333e-003 1.41432742e-003 1.07761065e-003
      8.18774861e-004 3.26536386e-003 4.14405251e-003 2.33157101e-004
      1.81258525e-004 2.07526289e-004 5.79290616e-004 8.89445597e-004
      5.20871195e-004 4.86212259e-004 4.34645405e-003 4.25147312e-003
      4.02459729e-004 7.97682733e-004 5.44918876e-004 1.47777703e-003
      1.15012215e-003 1.33495510e-003 8.55321472e-004 4.40081488e-003
      3.43410810e-003 2.14266372e-004 5.02606737e-004 4.94533917e-004
      8.86276714e-004 8.97519232e-004 6.70555863e-004 6.26689231e-004
      3.49833490e-003 3.67992884e-003 7.31962093e-004 1.40200939e-003
      1.14208297e-003 2.78776418e-003 1.76164077e-003 1.66585052e-003
      1.00272230e-003 3.74959433e-003 3.96733033e-003 2.52593338e-004
      2.51709134e-004 2.54685117e-004 1.68579933e-003 1.18493312e-003
      1.26648182e-003 1.03754760e-003 3.95692559e-003 4.19330643e-003
      7.17705465e-004 9.53972049e-004 6.14969060e-004 4.09444515e-003
      2.92667747e-003 2.34609935e-003 1.22240698e-003 4.36259480e-003
      3.54310242e-003 5.38691937e-004 6.73184579e-004 7.10567867e-004
      2.61193537e-003 9.08866641e-004 8.08712444e-004 4.41448938e-004
      3.28020565e-003 2.69511202e-003 5.34198771e-004 8.49799195e-004
      1.25994335e-003 3.45174898e-003 1.66172918e-003 9.49082372e-004
      5.58667467e-004 2.79123895e-003 3.32955993e-003 5.06524462e-004
      6.61398517e-004 6.16354053e-004 4.48043644e-003 2.11322145e-003
      2.03171396e-003 1.35699369e-003 2.93992343e-003 2.25597480e-003
      2.27026962e-004 4.83041105e-004 1.03405013e-003 5.06593753e-003
      2.86028837e-003 2.22616596e-003 1.64451764e-003 2.26497278e-003</_>
    <_>
      2.43692249e-002 4.64621698e-003 -1.92693714e-002 -3.56285535e-002
      -1.13423420e-002 2.02572513e-002 1.04069971e-002 6.51233830e-003
      2.44902000e-002 -6.53140072e-004 -1.12136286e-002 -5.40732145e-002
      -5.77619150e-002 -1.89397391e-002 1.87078882e-002 9.10355337e-003
      6.71853451e-003 3.92386876e-003 3.91531996e-002 1.03161717e-002
      -2.74143238e-002 -3.66118215e-002 -2.13922672e-002 2.64198538e-002
      1.50601743e-002 1.02608576e-002 3.85139547e-002 3.35819535e-002
      7.42018223e-003 -3.85017619e-002 -4.47788313e-002 -2.23764945e-002
      2.33678352e-002 1.37545569e-002 9.54443496e-003 3.30068246e-002
      -1.13976346e-002 -1.46855379e-003 -2.43070982e-002
      -4.33232300e-002 -2.18287017e-002 1.47336051e-002 4.56365012e-003
      2.15651374e-003 -1.29260151e-002 1.97380912e-002 8.35524406e-003
      -1.04184141e-002 -3.31101194e-002 -5.84493876e-002
      -1.01506328e-002 -2.94466480e-003 -2.26544635e-003 1.38728647e-002
      3.05811465e-002 1.23425443e-002 -3.50390598e-002 -3.38968486e-002
      -1.81235950e-002 2.42154822e-002 8.72027688e-003 7.06711318e-003
      2.89372224e-002 4.18783389e-002 2.43570097e-002 -1.87816396e-002
      -3.72560583e-002 -4.34730165e-002 9.88482963e-003 7.43847014e-003
      4.88557015e-003 4.23234254e-002 2.25245282e-002 -2.42683251e-004
      -1.70901325e-002 -4.80830558e-002 -8.27675909e-002
      -2.69278176e-002 -9.72068589e-003 -5.85439987e-003 1.60124600e-002
      1.00261355e-002 -5.42283757e-003 -5.30887721e-003 -2.32211198e-004
      1.18957215e-003 7.02382484e-003 6.16360735e-003 3.47419851e-003
      9.88634955e-003 3.20999362e-002 -1.24150643e-003 -3.20735350e-002
      -5.97606599e-002 -7.03104958e-002 6.24917855e-004 6.61322661e-003
      1.48611818e-003 3.23522873e-002 2.51302831e-002 -7.33451406e-003
      -3.53711913e-003 -8.94537382e-003 4.94335219e-003 1.91897675e-002
      1.16929524e-002 3.03766830e-003 2.67820880e-002 -9.74090304e-003
      -1.02600493e-002 -1.11525804e-002 -6.33843895e-003
      -9.17929038e-003 2.71278177e-003 2.50968314e-003 -2.26599094e-003
      -6.96378155e-003 2.49481713e-003 1.56010810e-005 5.35862928e-004
      9.26318113e-003 2.64550978e-003 -2.32765055e-003 -3.84199643e-003
      -4.23119217e-003 8.74099962e-004 -2.80098035e-003 -6.09554304e-003
      1.16806955e-003 5.35625871e-003 1.78387889e-003 6.43443270e-003
      1.02538522e-002 -1.47155044e-003 -5.34822838e-003 1.03570502e-002
      6.91208988e-003 1.21639892e-002 2.08278112e-002 6.15104521e-003
      -1.02363771e-003 4.45545558e-003 -1.08289591e-003 1.11476667e-002
      3.41840065e-003 -1.60912331e-003 -6.17733179e-003 4.46618488e-003
      1.11496611e-003 -4.15765494e-003 -4.42406628e-003 -1.37734087e-003
      3.11581348e-003 1.17920153e-002 1.17495772e-003 -2.09193770e-003
      1.28063681e-002 2.20914464e-002 1.10123353e-002 -3.39993462e-003
      -1.04949193e-003 9.96803213e-003 2.48468411e-003 -9.02826991e-003
      -8.56978819e-003 1.55626936e-003 6.84477529e-003 -7.33464165e-003
      -5.38726756e-003 -3.10848351e-003 8.06905702e-003 1.71424188e-002
      1.24455988e-003 1.64196675e-003 7.19915796e-003 1.92673691e-002
      1.34142656e-002 -8.37784843e-004 -5.06321946e-003 1.20408377e-002
      9.91994981e-003 1.59801752e-003 9.17460246e-004 1.01919062e-002
      1.26312766e-002 4.84263804e-003 -2.39718915e-003 3.32068827e-004
      7.27689825e-003 1.35311671e-002 1.27239723e-003 -6.27891161e-003
      4.79257293e-003 1.27404211e-002 1.27697345e-002 4.72761737e-003
      5.83060365e-003 1.45568801e-002 3.08221579e-003 1.86988525e-003
      3.13857599e-004 1.16689214e-002 2.15492472e-002 8.68253876e-003
      3.18367803e-003 2.46691774e-003 -1.53667410e-003 -4.74986155e-003
      -1.07595250e-002 -1.75159499e-002 -7.80535804e-004 1.03025995e-002
      1.23511963e-002 9.93107678e-004 2.92504556e-003 -3.58266779e-003
      9.88134090e-003 -2.68204254e-003 -7.71230413e-003 4.10388503e-003
      1.65660139e-002 8.75203125e-003 3.72128678e-003 5.76226320e-003
      1.26605928e-002 -9.00172163e-003 -8.88600573e-003 -6.76822150e-003
      8.58068001e-003 2.41604466e-002 1.25879636e-002 2.11088476e-003
      2.12164875e-003 -4.41909814e-003 -1.84461195e-002 -7.05983164e-003
      -8.89298972e-003 -4.35022451e-003 1.97602119e-002 1.78140085e-002
      9.17071290e-003 5.52514475e-003 -1.82355996e-002 -3.22804227e-002
      -1.52141014e-002 -1.37837632e-002 -2.35184026e-003 3.71844023e-002
      3.09477858e-002 7.62029132e-003 1.73731393e-003 -2.65839733e-002
      4.66907844e-002 6.34449022e-003 -4.36974801e-002 -4.90972549e-002
      -4.74241376e-002 1.09108910e-002 4.79855947e-003 5.17420657e-003
      4.55614515e-002 4.77900729e-002 9.79510974e-003 -3.62968966e-002
      -4.57458124e-002 -3.63103338e-002 1.02240387e-002 6.71362877e-003
      4.10959171e-003 4.32026386e-002 3.88431288e-002 1.16171166e-002
      -5.80305234e-002 -4.34928350e-002 -4.81029041e-002 7.16265524e-003
      1.61221181e-003 5.21342177e-003 3.65353897e-002 4.09071520e-002
      2.28466708e-002 -1.86872501e-002 -3.84352542e-002 -3.50171588e-002
      -2.15319451e-003 3.05516552e-003 2.57148291e-003 3.77238430e-002
      3.47611569e-002 1.27254743e-002 -3.65831517e-002 -4.50702980e-002
      -2.74337493e-002 7.57348025e-003 1.89756486e-003 8.08039855e-004
      2.96581499e-002 3.58972847e-002 1.35177365e-002 -2.54804939e-002
      -4.02038842e-002 -4.31357622e-002 4.40973183e-003 7.05588318e-005
      -1.03668412e-004 3.44459377e-002 1.30547332e-002 7.11814826e-003
      -3.12591270e-002 -3.38681154e-002 -2.73318123e-002
      -7.92448130e-003 3.95796742e-005 -2.20102118e-003 1.04486253e-002
      4.82049305e-003 1.50492396e-002 -1.03044696e-002 -2.08383743e-002
      -2.09469646e-002 3.41606792e-004 -7.08420062e-004 2.38756230e-003
      5.49742300e-003 2.22414155e-002 -5.86183276e-003 -3.93945314e-002
      -4.20087017e-002 -3.55930701e-002 1.92031881e-003 8.44418362e-004
      -9.96061484e-004 2.31087469e-002 1.32529587e-002 -7.69604510e-003
      -7.38519430e-003 -3.48724355e-003 2.07748804e-002 2.05520354e-002
      1.46019310e-002 1.08399298e-002 1.61828808e-002 -8.26018956e-003
      -9.93846916e-003 -2.59510837e-002 -4.35062759e-002
      -3.07344086e-002 -5.15683275e-003 -5.00720227e-003
      -4.18798300e-003 -1.10205077e-002 -8.62635672e-003
      -2.57651974e-002 -1.66325662e-002 -2.05801465e-002 4.40607686e-003
      1.30379805e-002 3.77918733e-003 1.24983210e-003 -6.52172556e-003
      -1.93896797e-003 -4.63160174e-003 -5.26138209e-003 1.37202488e-002
      2.20839791e-002 1.60683878e-002 1.42609160e-002 1.13614108e-002
      -1.23175181e-004 6.48914604e-003 7.29707303e-003 9.88826249e-003
      2.47192066e-002 2.33567823e-002 1.40534909e-002 1.25937574e-002
      1.12101538e-002 5.55388536e-003 -2.70546619e-002 -1.74261015e-002
      -8.73395894e-003 -2.62899254e-003 9.00589861e-003 8.52376223e-003
      4.23892960e-003 3.66599322e-003 -2.41637919e-002 -2.46909373e-002
      -9.23739467e-003 3.54275573e-003 8.26084334e-003 1.12867272e-002
      3.90169839e-003 3.85767687e-003 1.64830009e-003 -2.99306326e-002
      1.09251207e-002 -3.68588092e-003 3.01394193e-003 9.30815376e-003
      1.76401697e-002 6.73480611e-003 7.85559043e-003 7.09901657e-003
      1.59567259e-002 1.19849602e-002 -3.37168109e-003 1.18967739e-003
      6.97370479e-003 3.50702107e-002 1.02347499e-002 9.83822905e-003
      2.80720205e-003 9.97711904e-003 -1.09126195e-002 -8.55260622e-003
      -5.24434540e-003 7.66345882e-004 1.29371155e-002 4.06198960e-004
      5.33035141e-004 -1.58331264e-003 -1.34664942e-002 -9.91963781e-003
      -1.41531210e-002 -1.52419806e-002 -6.73022028e-003 1.46057755e-002
      2.88856891e-003 -3.56834717e-005 -1.04963896e-003 -1.35667734e-002
      1.22877201e-002 6.46803528e-003 1.03650298e-002 2.01649293e-002
      3.85262892e-002 1.51718287e-002 1.13434466e-002 6.39518164e-003
      6.34217821e-003 8.62986501e-003 2.95618549e-003 5.79288369e-003
      8.75648577e-003 3.23096327e-002 1.90513823e-002 9.78853181e-003
      7.24510569e-003 3.57689452e-003 -2.69651134e-002 -3.43049131e-003
      -5.04239753e-004 9.59103554e-003 2.49291565e-002 6.42434787e-003
      2.85728439e-003 1.68760447e-003 -2.72955038e-002 -2.67030131e-002
      -2.91065755e-003 2.07492223e-004 7.84010999e-003 1.81630775e-002
      7.17629259e-003 1.65169640e-003 1.32839370e-003 -2.99769770e-002
      1.76152607e-004 -5.52471867e-003 -4.42706374e-003 -1.46981690e-003
      2.62456127e-002 2.19218060e-002 1.29519477e-002 6.43786928e-003
      2.12067412e-003 -1.97767057e-002 -4.53586550e-003 -5.79725299e-003
      -1.39077287e-003 5.43435328e-002 4.52563986e-002 1.80715304e-002
      1.05013978e-002 -1.39408763e-002 -3.36601809e-002 -5.89811942e-003
      -5.73135633e-003 -1.00925310e-004 8.64193682e-003 1.28378961e-002
      7.77444663e-003 5.89599041e-003 -3.10079679e-002 -3.96842174e-002
      -1.94139276e-002 -1.54311471e-002 -1.48232130e-003 4.09973525e-002
      3.30608487e-002 7.48326490e-003 4.01195232e-003 -3.77765968e-002
      3.99369821e-002 8.55285674e-003 -6.91788346e-002 -5.08323163e-002
      -5.63818403e-002 4.93608834e-003 5.53559978e-004 2.46071187e-003
      3.82872745e-002 4.16550599e-002 1.16255675e-002 -1.20633533e-002
      -2.58531161e-002 -4.71601561e-002 -3.29363197e-002
      -1.37032643e-002 -8.48084688e-003 2.85779405e-002 3.01627442e-002
      1.36665637e-002 -3.69080268e-002 -3.69217061e-002 -1.84328351e-002
      1.30694844e-002 4.88600228e-003 7.44634587e-003 2.51115393e-002
      4.08586077e-002 2.05263868e-002 1.95338298e-002 2.95852572e-002
      2.83146161e-003 -1.72767062e-002 -8.08469206e-003 -4.11678920e-004
      3.30022834e-002 4.60845279e-003 4.31326684e-003 -6.67103939e-003
      -1.86397787e-002 -3.71518135e-002 -3.61601897e-002
      -1.88332088e-002 -1.50501309e-002 2.91463942e-003 4.11353586e-003
      -2.27305456e-003 -8.40982050e-003 -1.20789632e-002
      -1.62659623e-002 -1.33795459e-002 -8.89131427e-003
      -7.42284860e-003 8.51565599e-003 1.88668612e-002 1.14827016e-002
      1.31359603e-002 2.85139978e-002 4.40195715e-003 -2.63351612e-002
      -2.45913994e-002 -1.12269390e-002 3.51771875e-003 -1.91452838e-002
      7.79377995e-003 1.21207191e-002 2.44585574e-002 7.71535980e-003
      -1.17646707e-002 -1.16528291e-002 -9.95851308e-003
      -1.83880087e-002 -5.98355476e-003 -1.08195134e-002
      -6.85530063e-003 -3.50205600e-003 2.31193658e-002 4.87658894e-003
      -9.60962279e-005 -1.05761329e-003 -4.10741428e-003
      -1.29124373e-002 -1.87332965e-002 -1.25560528e-002
      -1.02385748e-002 2.16702484e-002 9.69463959e-003 3.97008564e-003
      2.62064720e-003 -6.43961783e-003 -4.11311202e-002 -6.48897560e-003
      -7.71730847e-004 7.99212325e-003 3.58240716e-002 1.39309168e-002
      3.33918608e-003 -4.97833069e-004 -3.64932753e-002 -3.25306356e-002
      -6.23002555e-003 -1.76316116e-003 7.05889240e-003 3.37408110e-002
      1.70266349e-002 9.93289798e-003 3.63829662e-003 -2.99396068e-002
      -1.37690892e-002 -2.15551760e-002 -1.51563669e-002
      -8.16176832e-003 2.11436469e-002 9.08797979e-003 5.13947522e-003
      3.18789622e-003 -7.92284776e-003 -2.60893721e-002 -2.14459747e-003
      5.19689685e-003 2.52654590e-002 3.41868624e-002 7.29704043e-003
      1.55515759e-003 -2.12100713e-004 -2.63588279e-002 -3.26301344e-002
      -9.89093818e-003 -5.90604637e-003 1.24778654e-002 4.23890017e-002
      1.40077351e-002 1.02959014e-002 -3.43751191e-004 -2.83184443e-002
      -3.39953564e-002 -8.39280337e-003 2.05515162e-003 2.32159160e-002
      3.69477160e-002 3.51021788e-003 2.40438106e-003 -2.42501660e-003
      -3.78095470e-002 -1.55767491e-002 -1.70804169e-002
      -9.12882760e-003 8.52786377e-003 1.10596968e-002 -1.60088495e-003
      -4.76360600e-003 -4.84622596e-003 -1.61273777e-002
      -3.53172887e-003 -1.12752449e-002 -1.03020305e-002
      -9.73454583e-003 9.24406387e-003 -2.38402659e-004 -1.23465573e-003
      -3.11794283e-004 1.24407792e-003 -3.09690405e-002 1.08416728e-003
      6.31460501e-003 2.40258723e-002 2.30292659e-002 -6.76756143e-004
      -6.20306353e-004 -3.55360983e-003 -3.61823775e-002
      -2.27737930e-002 2.38313340e-003 2.92717502e-003 1.36422887e-002
      2.71300226e-002 7.51488144e-003 7.26152770e-003 4.43726359e-003
      -2.47840732e-002 -1.30693130e-002 -4.09828546e-003
      -5.90507360e-003 4.18343028e-004 6.67840475e-003 -5.16005850e-004
      -2.47638696e-003 -8.02895578e-004 -9.72351804e-003
      -1.30131757e-002 -9.16874595e-003 -5.97623456e-003 1.08644664e-002
      1.27926152e-002 2.22867960e-003 -1.53976434e-003 -2.17830390e-003
      -1.04336096e-002 -2.30314191e-002 2.46641645e-003 -5.06261596e-004
      1.78356133e-002 2.28130836e-002 5.30551374e-003 -2.11900729e-003
      -5.23907645e-003 -2.39235610e-002 -2.54521612e-002 5.33469114e-003
      4.97031119e-003 1.70668941e-002 1.98651515e-002 1.15801739e-002
      1.93164378e-004 -3.87318712e-003 -2.46938169e-002 -5.47447568e-003
      -1.25022801e-002 -9.91464593e-003 -3.60883144e-003 3.25323129e-003
      2.01697578e-003 5.88099705e-004 -6.64724648e-005 -1.93633547e-003
      -3.16308923e-002 -1.20721739e-002 -1.54887242e-002
      -1.21367052e-002 2.88623329e-002 4.40015178e-003 -3.96820903e-003
      -9.19415522e-003 -3.53996791e-002 -3.15227285e-002
      -6.79831998e-003 -5.00808004e-003 1.05542876e-002 2.17728540e-002
      1.79065056e-002 5.27025759e-003 3.57835391e-003 -2.31955033e-002
      -4.13043126e-002 -1.05842277e-002 -6.84072403e-003 6.06978731e-003
      1.28459251e-002 -2.41988315e-003 -1.16680767e-002 -1.40613439e-002
      -3.61118093e-002 5.46591007e-004 -2.36284221e-003 -6.26615807e-002
      -6.57448769e-002 -4.83862199e-002 -3.67064169e-003
      -6.40270766e-003 -2.67508812e-003 -9.14757140e-004 1.80024356e-002
      -3.71029571e-004 2.80176639e-003 2.12047119e-002 -4.43328964e-003
      -2.27188338e-002 -1.60053894e-002 -8.88041966e-003 1.43560534e-002
      1.66292917e-002 1.11897625e-002 4.54532122e-003 -1.76368300e-002
      -3.38753685e-002 -7.13590113e-003 1.23699007e-004 -2.85334745e-003
      9.70784202e-003 3.02257966e-002 7.44334143e-003 1.26261618e-002
      3.07861064e-002 3.36093232e-002 7.90654123e-003 1.90862978e-003
      -1.13778468e-003 2.65659485e-002 -2.11083330e-002 -6.31938968e-003
      3.29283695e-003 2.50177030e-002 -1.85204223e-002 -2.82343924e-002
      -3.61366533e-002 -3.24162990e-002 -3.53031605e-002
      -4.28596362e-002 -1.10692950e-002 -1.68803043e-003 2.19115764e-002
      -4.01307654e-004 -1.60208568e-002 -2.46403199e-002
      -2.97166687e-002 -4.68651094e-002 3.65523770e-002 8.60078633e-003
      1.35893635e-002 2.30838917e-002 2.46088430e-002 1.39326304e-002
      5.25404047e-003 -1.64565339e-003 2.82733385e-002 6.22602645e-003
      1.76341529e-003 7.77097931e-003 1.50604919e-002 1.46050267e-002
      1.22057348e-002 1.66411046e-003 -9.08994174e-004 2.88504874e-003
      -4.49010953e-002 -5.79238497e-003 3.18315672e-003 1.59783810e-002
      2.37860940e-002 1.39954928e-002 3.14170175e-004 -9.95361526e-003
      -5.08655831e-002 -4.92957346e-002 -1.52937714e-002
      -1.00385193e-002 -1.54961075e-004 1.94493635e-003 -8.67327966e-004
      -4.24375199e-003 -1.05620353e-002 -5.21218702e-002 4.47428785e-003
      1.56855769e-003 6.64314162e-003 1.81421377e-002 3.18942219e-002
      1.81717332e-002 6.09762641e-003 2.47860607e-003 3.24436463e-004
      3.03690531e-003 -3.66394641e-003 1.69641420e-003 1.10186171e-002
      1.15322936e-002 6.11107517e-003 2.35976023e-003 2.38144491e-003
      5.31810336e-003 -4.69131060e-002 -1.51525149e-002 -1.80744622e-002
      5.15132304e-003 1.70819890e-002 1.33468001e-003 -1.94739527e-003
      -6.25563366e-003 -4.29460816e-002 -4.76826876e-002
      -2.07996685e-002 -2.08046269e-002 2.68122065e-003 1.96037833e-002
      -4.77514090e-003 -7.30070658e-003 -9.76547133e-003
      -5.37017658e-002 -1.89551897e-003 -2.26967433e-003 2.57951068e-003
      1.54971536e-002 1.99582726e-002 4.80244023e-004 4.59100811e-005
      1.47202320e-003 2.15568230e-003 -1.33827543e-002 -2.66556768e-003
      -3.90315923e-004 1.19854864e-002 2.46621408e-002 -2.19924608e-003
      -7.15017831e-003 -1.17047271e-002 -1.94770042e-002
      -4.64902334e-002 -1.35678062e-002 -1.15063312e-002
      -1.94941007e-003 8.48859735e-003 -4.33851639e-003 -4.81215399e-003
      -7.91973993e-003 -5.49083203e-002 -4.32664119e-002
      -8.38558003e-003 -6.33823453e-003 1.07679106e-002 1.98294874e-002
      3.83590767e-003 -2.94452650e-003 -4.26868151e-004 -4.31948565e-002
      -1.03013488e-002 -8.19613785e-003 -9.63893812e-003 6.30476559e-003
      1.13314912e-002 -4.74074204e-003 -4.89083538e-003 -1.25099998e-002
      -1.50380777e-002 6.19651633e-004 -5.61080035e-003 1.42171339e-003
      1.59551091e-002 1.98768955e-002 -3.38064681e-004 -4.24258597e-003
      -4.46954649e-003 -1.02250066e-004 -4.10988592e-002
      -9.89111420e-003 -1.30390069e-002 1.35430908e-002 1.82208102e-002
      1.41105638e-003 -6.60613459e-003 -3.28471907e-003 -4.05922085e-002
      -3.19367647e-002 -7.17343122e-004 -6.21270202e-003 1.40824486e-002
      1.88040920e-002 5.08046104e-003 -4.28835535e-003 -3.80334258e-003
      -2.64833290e-002 -8.06352255e-005 -5.40915085e-003
      -6.29340706e-004 1.81671083e-002 1.86990984e-002 -5.37464512e-004
      -4.62363334e-003 -4.76936391e-003 -2.25574989e-003
      -4.40255972e-003 -1.13954181e-002 -7.76975229e-003
      -1.05525076e-003 1.21521633e-002 -4.56465362e-003 -5.62066259e-003
      -1.10594416e-002 -7.65062543e-003 -2.05899216e-002
      -4.64953296e-003 -5.21592842e-003 7.05476012e-003 2.01231148e-002
      1.62737444e-002 4.85332217e-003 4.11544880e-003 -1.39523298e-002
      -2.67643463e-002 -6.36496628e-003 -2.98561808e-003 5.89999557e-003
      -5.99123631e-003 -8.23196303e-003 -5.09007368e-003
      -5.33349253e-003 -2.30986532e-002 -1.17594684e-002
      -1.51864602e-003 1.14153582e-003 8.46737996e-003 1.47880688e-002
      7.01845018e-003 1.17895659e-003 1.25642039e-003 -1.28202401e-002
      -2.58517936e-002 -1.96853317e-002 -1.74023807e-002
      -3.26213008e-003 -1.92890167e-002 -4.56675515e-003
      -1.76221563e-003 2.03361502e-004 -2.45361272e-002 9.13590007e-003
      5.10453200e-003 1.64246559e-002 1.25250965e-002 -4.67266366e-002
      -2.07210220e-002 -1.23374490e-002 -1.27757052e-002 2.43664905e-003
      1.83336772e-002 5.76125691e-003 6.42994838e-003 1.79756228e-002
      1.75324604e-002 2.67004035e-003 -2.06437381e-003 -1.05215120e-003
      1.52772609e-002 1.91952158e-002 2.39213742e-003 1.14816818e-002
      1.44456513e-002 -3.32270637e-002 -1.51362652e-002 -1.06377210e-002
      -2.27865041e-003 1.95993744e-002 2.21645944e-002 8.85163806e-003
      4.50183684e-003 3.37002450e-003 -4.01772466e-003 -2.64033349e-003
      -5.48920082e-003 3.67028359e-003 2.22472902e-002 9.94297303e-003
      3.96096293e-005 -2.22625793e-003 -3.14699100e-005 -2.36475542e-002
      -1.07190041e-002 -1.22408671e-002 -1.54998444e-003 9.35443025e-003
      2.29762751e-003 2.76108435e-003 -3.69690475e-003 1.84666147e-004
      1.65727886e-003 4.16126661e-003 1.20594341e-003 3.23736435e-003
      4.52001300e-003 2.47964952e-002 -3.70368129e-004 5.25405048e-004
      -2.97232578e-003 -2.77751759e-002 -1.80863366e-002
      -1.77630316e-002 -1.56697596e-003 1.82276275e-002 2.90886145e-002
      2.48212088e-003 -2.93467863e-004 3.64333112e-003 4.10785154e-003
      7.69902533e-003 -6.40161894e-003 -3.49011389e-004 2.74607483e-002
      5.44940354e-004 6.11914089e-003 6.09955052e-004 9.49324109e-003
      1.10877417e-002 8.08560755e-003 1.27460575e-003 -4.48672887e-004
      1.22648419e-003 -5.42735402e-003 -8.83833412e-003 -1.13105057e-002
      6.39313250e-004 -5.96888363e-003 -1.09461863e-002 -9.02532414e-003
      -1.33070548e-003 -1.75602711e-003 1.80449933e-002 2.63296789e-003
      2.81167519e-003 8.75584222e-003 9.96490009e-003 5.01742447e-003
      -1.08198170e-003 -1.46807800e-003 1.87766440e-002 5.00359898e-003
      -2.82123573e-002 -2.03927439e-002 1.04979724e-002 -1.39078191e-002
      -9.48923174e-003 -1.56135522e-002 -7.21409684e-003 1.03349006e-002
      -1.53742812e-003 -7.69040268e-003 -2.27871980e-003 7.46628456e-003
      7.66555779e-003 -3.23512824e-003 -2.50170426e-003 -2.92416044e-005
      -2.26765478e-004 -6.66898163e-003 -5.02722990e-003
      -1.33062538e-003 1.16873682e-002 2.52006669e-003 -4.02481062e-003
      -2.03721831e-003 -4.48304322e-003 -7.36568589e-003
      -3.68015072e-003 -7.92364497e-003 9.57924873e-004 2.41449848e-002
      9.35828034e-003 1.75144465e-003 2.94463127e-003 5.31132706e-003
      -1.70366571e-003 -1.34035563e-002 -8.95932596e-003
      -1.62742590e-003 -5.15782228e-003 -5.87470422e-005
      -4.16189153e-003 5.49685967e-004 -2.81410292e-003 -9.20645054e-003
      5.80847124e-003 -1.12956762e-003 3.82370874e-003 1.77866444e-002
      2.02646665e-002 7.33995112e-003 6.36136206e-003 -3.95301640e-006
      6.36380911e-003 9.59985424e-003 2.59948149e-003 9.63538792e-003
      1.96688920e-002 2.43841615e-002 1.42160235e-002 9.16587282e-003
      3.15563288e-003 4.77025332e-003 -1.44990170e-002 -1.00171808e-002
      -1.06146662e-002 -1.54936220e-002 3.92400194e-003 -2.05650576e-003
      1.36403402e-003 2.87247676e-005 -3.31117958e-003 -1.10449772e-002
      -2.91076154e-002 -2.79343911e-002 -2.22026799e-002 5.74446609e-003
      8.88826139e-003 1.00460248e-002 9.15667624e-004 -1.18549056e-002
      6.13974594e-003 8.24763905e-003 1.26177464e-002 2.46338584e-002
      3.28313671e-002 1.84851289e-002 1.14676319e-002 6.40699966e-003
      4.67388751e-003 -5.53828385e-003 3.10977362e-003 1.03969313e-002
      1.88413523e-002 3.10458466e-002 2.53100414e-002 1.39721278e-002
      7.42861954e-003 -4.21462907e-003 -2.12792959e-002 -1.64176952e-002
      -1.44936787e-002 -1.73777230e-002 2.14198660e-002 1.28457686e-002
      1.18460534e-002 3.90128768e-003 -2.08279323e-002 -1.79438312e-002
      -2.65237764e-002 -2.18608491e-002 -1.50974207e-002
      -2.94453371e-003 2.05155108e-002 1.10950377e-002 4.55979910e-003
      -2.03215480e-002 -5.74799313e-004 4.17293934e-003 8.05120543e-003
      1.75910480e-002 3.21225971e-002 1.77772827e-002 9.21982341e-003
      5.18877106e-003 1.46023533e-003 -2.82765888e-002 -9.86148696e-003
      -5.05703082e-003 1.67726669e-002 6.67157164e-003 1.23543190e-002
      8.20106082e-003 5.17102005e-003 -2.27116048e-002 -7.20317103e-003
      -1.17671629e-002 -6.50312472e-003 -4.30273358e-004 3.17891389e-002
      2.13195812e-002 1.34836072e-002 6.18319958e-003 -1.55642834e-002
      -1.95095800e-002 -1.72301475e-002 -3.04279942e-003
      -1.76660321e-003 1.00685665e-002 2.25898381e-002 1.39289126e-002
      7.13481661e-003 -2.04558372e-002 2.27619093e-002 8.69181938e-003
      8.60094186e-003 7.49484636e-003 -2.08045803e-002 2.02790871e-002
      4.04460868e-003 3.29184788e-003 2.58749556e-002 1.63201410e-002
      3.03961919e-003 4.31256695e-003 4.40269476e-003 2.77964771e-003
      1.03942370e-002 1.75195886e-003 5.59308333e-003 1.90603565e-002
      -5.54866763e-003 2.21973006e-003 -1.33689400e-003 3.28036444e-003
      -3.77699211e-002 -1.11629264e-002 -1.91070104e-003
      -4.01379913e-003 -7.90301431e-003 1.39313668e-003 -9.83035192e-003
      -1.13895033e-002 -5.33306925e-003 5.42713935e-003 1.25999693e-002
      6.91166753e-003 5.96652227e-003 -1.10992766e-003 6.79405360e-003
      -3.18073598e-003 -4.11518896e-003 -1.18561890e-002
      -1.10509386e-002 1.69255552e-004 -3.08349985e-003 1.32950535e-003
      5.43359155e-003 9.93519742e-003 2.95636151e-003 9.16587841e-003
      1.24726696e-002 1.95730720e-002 8.11281707e-003 1.15721032e-003
      3.49614467e-003 1.20874261e-002 -8.55754479e-005 -1.28585175e-002
      -1.53292231e-002 -1.87394768e-002 -1.24121895e-002
      -8.28814041e-003 -5.16156247e-003 -1.71876198e-003
      -1.23119063e-003 5.59840724e-003 -2.01239083e-002 -2.20175181e-002
      -1.93886720e-002 1.56462356e-003 6.53894059e-003 -4.76133544e-003
      -1.58670894e-003 3.84415989e-003 -1.89513247e-003 3.98514606e-003
      6.31522387e-003 8.56222119e-003 1.97346788e-002 9.50469263e-003
      1.41700218e-003 3.39467515e-004 2.77224055e-004 -2.03983672e-002
      -4.45388537e-003 -3.17442027e-004 1.54453311e-002 1.47219254e-002
      -1.74318114e-003 -2.66851136e-003 -1.37947069e-003
      -2.07357183e-002 -7.08021550e-003 -1.50738331e-002
      -1.74217746e-002 -1.38843795e-002 1.41107561e-002 1.31466361e-002
      -3.25406156e-003 -2.57141120e-003 -1.09826848e-002
      -1.07466895e-002 -1.04218582e-002 -1.66333222e-003
      -1.13392703e-003 2.46271491e-002 2.69265031e-003 -7.89152400e-004
      3.25338007e-003 -1.30358757e-002 -1.32751800e-002 2.29475624e-003
      8.31336807e-003 1.73872877e-002 1.69136785e-002 4.06619953e-003
      1.60010648e-003 3.68291046e-003 -6.64480403e-003 -1.04607996e-002
      -3.07946443e-003 2.40335416e-004 -9.88772721e-004 1.40568148e-002
      1.04519101e-002 1.08981226e-002 6.38789125e-003 -6.57633459e-003
      -1.22662382e-002 -1.10488012e-002 -1.07880123e-003 5.37812803e-003
      1.62022002e-002 5.42104058e-003 1.02686440e-003 3.05382023e-003
      -1.83706209e-002 -2.63359714e-002 -1.67982839e-002
      -1.68576948e-002 -1.27847558e-002 2.05630925e-003 1.00255851e-002
      1.72435790e-002 9.10106860e-003 -2.84142029e-002 -4.40527080e-003
      -2.66189640e-003 5.98548504e-004 -5.87008754e-003 1.73309110e-002
      1.35225765e-002 1.21447500e-002 9.44223721e-003 1.59265255e-004
      -1.29406871e-002 -1.41793238e-002 -9.19556525e-003
      -1.31517285e-002 1.35630807e-002 9.80037637e-003 8.08229763e-003
      6.55463710e-003 -1.38439108e-002 -1.74694024e-002 -1.46433515e-002
      -1.39761027e-002 -1.27562033e-002 1.52167929e-002 2.59738639e-002
      2.17458475e-002 1.39462240e-002 -1.84937827e-002 -1.94272976e-002
      -2.09877938e-002 -1.57045890e-002 -5.67659736e-003 1.62211061e-002
      1.79049578e-002 1.09458929e-002 9.99677833e-003 -1.25056570e-002
      -2.35106871e-002 -1.47470022e-002 -1.10730734e-002
      -1.55881373e-002 1.62306335e-002 1.65244620e-002 1.06156366e-002
      7.60569796e-003 -2.21080519e-002 -1.62296630e-002 -9.81219020e-003
      -2.07614084e-003 2.36622477e-003 5.05705411e-003 2.21553091e-002
      1.71177704e-002 1.32264709e-002 -1.89413372e-002 -5.45390835e-003
      -1.38169806e-002 -9.58768930e-003 -5.80864307e-003 2.17308719e-002
      2.29390692e-002 1.50694735e-002 8.15796200e-003 -1.05233002e-003
      3.24656256e-003 -1.04484549e-002 -4.80071321e-004 4.99899359e-003
      5.55796688e-003 2.55271979e-002 1.68350134e-002 7.88982119e-003
      2.97085103e-003 -2.85083745e-002 -1.44022135e-002 -1.14741344e-002
      -5.91759430e-003 2.36357842e-002 1.61891766e-002 9.29311756e-003
      4.96432232e-003 -3.24779674e-002 -3.32388058e-002 -1.17401592e-002
      4.45185462e-003 1.16478177e-002 2.64489576e-002 1.46873947e-002
      8.68697278e-003 6.19064318e-003 -3.23999301e-002 -5.07310079e-003
      5.00909809e-004 7.89627060e-003 2.02196073e-002 3.71542647e-002
      1.05130915e-002 6.69770222e-003 4.78438893e-003 -4.01837053e-003
      -1.06408233e-002 6.21034205e-003 1.76790617e-002 2.57178973e-002
      2.67726872e-002 1.46681638e-002 9.74250305e-003 6.00820687e-003
      -8.41710158e-003 -5.53304050e-003 8.15680344e-003 1.42921368e-002
      1.68543719e-002 -2.64181639e-003 9.89652239e-003 7.19760871e-003
      9.88181867e-003 -8.02590325e-003 -7.05826608e-003 1.00524037e-003
      7.01228296e-003 1.68571305e-002 2.88404841e-002 1.77852307e-002
      1.03860218e-002 9.02929623e-003 -8.75595864e-003 -4.01156507e-002
      8.28014128e-003 1.25273746e-002 9.79844108e-003 -1.25619601e-002
      -1.96255259e-002 -9.85486433e-003 -1.05075147e-002
      -4.28223200e-002 -4.51738276e-002 -6.96994970e-003
      -1.24039315e-003 1.15065547e-002 1.99012104e-002 3.95247899e-003
      1.91410969e-003 -1.58439123e-003 -4.54034247e-002 -3.04177962e-003
      -5.64897782e-004 1.86576636e-003 9.81119927e-003 2.92961895e-002
      1.26593448e-002 5.70365693e-003 6.14126958e-003 -4.41218773e-003
      -1.25327861e-004 -6.58082124e-003 -2.37653241e-003
      -5.42735867e-003 2.29681917e-002 1.50846336e-002 4.52309428e-003
      5.54864574e-003 -4.43043886e-003 -5.05289845e-002 -3.19219381e-003
      3.14381905e-003 1.01058660e-002 2.02816520e-002 1.98499695e-003
      8.87972186e-004 -3.53916723e-004 -5.10955080e-002 -4.16918918e-002
      8.91779142e-004 7.90240150e-003 8.55872594e-003 1.85011569e-002
      3.33494809e-003 7.50225081e-006 1.20341159e-004 -3.97314578e-002
      -2.35822238e-003 -1.38592413e-002 -4.67802119e-003
      -3.60334618e-003 2.82820109e-002 2.05091257e-002 6.36130851e-003
      6.53586257e-003 -6.08313875e-003 -1.06338449e-002 -3.23252636e-003
      2.18946976e-003 9.77358548e-004 2.12100446e-002 1.16102351e-002
      8.76555592e-003 8.39146879e-003 -1.20656220e-002 -3.50431539e-002
      -6.32646773e-003 1.16380514e-003 5.77312615e-003 2.43434012e-002
      8.98938999e-003 4.18024836e-003 2.94239400e-003 -3.10025103e-002
      -2.57754102e-002 -9.09498602e-004 9.93107969e-005 -3.78246390e-004
      1.27815548e-002 6.58613816e-003 5.32535976e-003 4.38287947e-003
      -2.60597076e-002 -1.31278122e-002 -6.53905980e-003 3.41765233e-003
      9.94524918e-004 2.49635279e-002 1.19890748e-002 8.82430840e-003
      4.81049670e-003 -1.63553953e-002 -3.14206555e-002 -1.25855105e-002
      -7.74950441e-003 -2.19508377e-003 2.14549601e-002 2.12235823e-002
      2.10010540e-002 1.32414568e-002 -2.76885796e-002 -2.81624794e-002
      -6.26124965e-004 2.33620079e-003 1.11837219e-003 1.10326102e-002
      8.13303888e-003 8.84271413e-003 2.25327420e-003 -3.04539986e-002
      -2.75116544e-002 -1.14739155e-002 -7.56378798e-003
      -9.52277612e-003 6.80505484e-003 1.16304401e-002 7.97957182e-003
      4.50426480e-003 -2.33110394e-002 -2.67896038e-002 -2.29712725e-002
      -1.50992135e-002 -1.59467142e-002 1.07093193e-002 2.07846090e-002
      1.03700394e-002 5.14434325e-003 -2.48227604e-002 -2.85688452e-002
      -2.15998646e-002 -1.18224556e-002 -1.81427051e-003 8.45254585e-003
      2.00268161e-002 7.66551401e-003 7.74352055e-004 -2.40488909e-002
      -1.46830687e-002 -6.84989197e-003 -3.95307597e-003
      -4.85705817e-003 -2.28046789e-003 8.35038722e-003 5.30735217e-003
      3.16982321e-003 -9.42228362e-003 -3.14288842e-003 -4.39013762e-004
      1.47676212e-003 3.57528171e-003 1.44223673e-002 1.37778288e-002
      8.97890329e-003 4.69307322e-003 -1.01939728e-003 -3.73974144e-002
      -3.37984413e-002 -1.84477791e-002 -9.22149699e-003 4.19320911e-003
      1.84992496e-002 2.70842254e-004 -8.37670173e-003 -3.37870158e-002
      -1.78871714e-002 -1.42029580e-002 -5.63011644e-003
      -8.56493250e-004 1.28472177e-002 1.01021472e-002 4.04058397e-003
      2.17055879e-003 -1.18905446e-002 -8.68325413e-004 -1.68325030e-003
      -6.78264885e-004 3.63762316e-004 1.04454104e-002 1.04847765e-002
      6.42161490e-003 3.83509113e-003 -1.34775139e-004 5.67621319e-003
      -1.62922172e-003 -1.47416780e-003 -1.58134673e-003 1.54254604e-002
      1.24217626e-002 7.64110032e-003 2.93399324e-003 7.97798391e-003
      -3.48720960e-002 -3.55385360e-003 4.26399783e-004 6.07968715e-004
      2.49744337e-002 -5.22013940e-003 -1.28206741e-002 -6.48138393e-003
      -3.36378068e-002 -3.64610814e-002 1.41721778e-003 -7.39664887e-004
      2.11062022e-002 3.09577771e-002 1.73047166e-002 -7.26375775e-003
      -4.54625394e-003 -3.47150862e-002 1.58043025e-004 1.97620271e-003
      1.00258552e-003 2.50858255e-003 3.24362181e-002 6.25709165e-003
      3.73057695e-003 1.01541798e-003 -1.13559095e-003 -1.72811076e-002
      3.00765713e-003 3.50459758e-003 6.55689556e-003 4.90061827e-002
      2.49385908e-002 1.68284997e-002 1.24142282e-002 -1.80626623e-002</_>
    <_>
      -7.83963071e-004 -4.01652331e-004 -2.41711852e-003
      -4.31467593e-003 -3.57261719e-003 -2.79738568e-004
      -1.11924070e-004 -1.21995057e-004 -7.48423859e-004
      -2.59720953e-003 -1.55698485e-003 -5.35357371e-003
      -6.01139944e-003 -5.29430481e-003 -3.00159620e-004
      -9.67474843e-005 -1.08166554e-004 -2.10309611e-003
      -7.08152482e-004 -6.56396151e-004 -4.06060088e-003
      -6.03759987e-003 -5.36394399e-003 -2.90515221e-004
      -1.02914470e-004 -1.07165775e-004 -7.06517021e-004
      -8.40786146e-004 -6.60675927e-004 -5.17173437e-003
      -6.02954160e-003 -5.81631204e-003 -3.99086479e-004
      -1.01994265e-004 -1.15641596e-004 -8.18887958e-004
      -3.92563874e-003 -1.10622740e-003 -3.24258022e-003
      -5.11638448e-003 -5.28022461e-003 -8.10136204e-004
      -4.27426858e-004 -5.02272858e-004 -3.70125566e-003
      -2.33963039e-003 -5.12633065e-004 -1.35702291e-003
      -2.69719143e-003 -6.11237343e-003 -2.17399420e-003
      -9.04399611e-004 -9.57797223e-004 -2.66734720e-003
      -9.91891488e-004 -4.24339552e-004 -3.96449771e-003
      -5.53487102e-003 -5.99507987e-003 -4.90905601e-004
      -1.83207230e-004 -1.49113068e-004 -8.96533369e-004
      -9.24654596e-004 -6.47898007e-004 -2.95103155e-003
      -4.63585136e-003 -5.90269873e-003 -6.56471355e-004
      -1.98530528e-004 -1.28152926e-004 -7.92997191e-004
      -1.84415549e-003 -6.78775657e-004 -1.34112453e-003
      -3.52995587e-003 -9.08759609e-003 -3.83168249e-003
      -1.69649825e-003 -1.34793308e-003 -2.19804607e-003
      -1.61029468e-003 -4.20943077e-004 -6.31665636e-004
      -3.02491360e-004 -8.14685423e-004 -2.24229734e-004
      -3.50299320e-004 -2.17394365e-004 -1.57423830e-003
      -2.35201884e-003 -1.05869758e-003 -2.88352417e-003
      -5.20926202e-003 -8.93407594e-003 -1.48642634e-003
      -6.05130044e-004 -4.17820353e-004 -2.02715164e-003
      -2.60030339e-003 -7.94312567e-004 -6.39009406e-004
      -3.31157527e-004 -1.13996526e-003 -3.60807462e-004
      -4.23760444e-004 -3.38756246e-004 -2.45439331e-003
      -1.06090656e-003 -4.57095593e-004 -4.52902575e-004
      -1.73451728e-004 -2.72624602e-004 -1.07742133e-004
      -1.76834670e-004 -1.09380555e-004 -1.02934288e-003
      -1.00423535e-003 -4.86007018e-004 -4.40540724e-004
      -2.64743838e-004 -1.08127436e-003 -3.48918227e-004
      -3.60642502e-004 -1.61408287e-004 -1.02372107e-003
      -3.19569535e-003 -1.00707891e-003 -5.85736707e-004
      -2.48010765e-004 -7.74084823e-004 -2.84760201e-004
      -3.03333421e-004 -2.39598507e-004 -3.15545406e-003
      -3.29639250e-003 -8.78315361e-004 -6.02318207e-004
      -4.40989679e-004 -1.29390950e-003 -3.42887826e-004
      -2.94441707e-004 -2.80360226e-004 -3.26620298e-003
      -8.07761098e-004 -3.51740600e-004 -3.19811224e-004
      -2.93250021e-004 -4.91416198e-004 -2.83350237e-004
      -1.93060623e-004 -1.19671218e-004 -7.79180846e-004
      -1.16685091e-003 -4.37776209e-004 -4.63751523e-004
      -6.92145783e-004 -7.72711355e-004 -7.73593667e-004
      -5.65293711e-004 -4.19983000e-004 -9.25003842e-004
      -2.89228885e-003 -7.57109141e-004 -9.75133618e-004
      -1.06056361e-003 -7.48656690e-004 -2.05922188e-004
      -1.90885869e-004 -1.64371973e-004 -2.51358934e-003
      -2.92655942e-003 -2.10747099e-003 -2.17601261e-003
      -2.19893875e-003 -1.05124386e-003 -4.79139911e-004
      -4.19278047e-004 -3.93167022e-004 -2.90670758e-003
      -9.85942315e-004 -3.99884302e-004 -4.47405910e-004
      -4.15864954e-004 -5.69326454e-004 -4.69730265e-004
      -3.74266499e-004 -2.76914536e-004 -9.48300294e-004
      -1.19004236e-003 -4.57401038e-004 -7.71732826e-004
      -4.68582351e-004 -7.31255510e-004 -2.20564005e-004
      -1.76231857e-004 -1.51534259e-004 -1.21074903e-003
      -3.31546809e-003 -8.08746147e-004 -8.40876426e-004
      -1.05316844e-003 -6.07111782e-004 -3.63687170e-004
      -3.15198064e-004 -3.08006885e-004 -3.33258137e-003
      -3.35844210e-003 -7.89329351e-004 -1.08232035e-003
      -1.23267155e-003 -9.28334892e-004 -2.09218662e-004
      -1.77403927e-004 -1.82527438e-004 -3.18613555e-003
      -1.72758929e-003 -5.03267802e-004 -6.95985218e-004
      -3.36902653e-004 -4.95018670e-004 -1.35291441e-004
      -9.80822733e-005 -5.30675497e-005 -1.38901325e-003
      -2.73380731e-003 -4.43308789e-004 -4.60910844e-004
      -4.81967640e-004 -1.11814088e-003 -7.07590603e-004
      -5.92391822e-004 -6.20225444e-004 -2.67703459e-003
      -2.44784541e-003 -1.06486643e-003 -1.45939726e-003
      -1.80396065e-003 -1.03051635e-003 -1.22313417e-004
      -8.01928545e-005 -6.77754870e-005 -2.35585845e-003
      -2.41741748e-003 -8.30600795e-004 -1.11868489e-003
      -1.34140765e-003 -1.50109211e-003 -9.91797890e-004
      -8.53041769e-004 -8.15960462e-004 -2.53234128e-003
      -6.50768226e-004 -6.82486570e-004 -4.31370409e-003
      -5.67306904e-003 -5.85738150e-003 -3.97069904e-004
      -2.09582140e-004 -1.55408881e-004 -6.55344571e-004
      -6.71873975e-004 -4.92393563e-004 -3.68835032e-003
      -5.85037004e-003 -5.55420248e-003 -4.45011945e-004
      -9.48807792e-005 -1.06071406e-004 -6.47619076e-004
      -2.61436799e-004 -2.07347417e-004 -4.96230833e-003
      -5.98649448e-003 -5.82129275e-003 -8.61257024e-004
      -6.03148364e-004 -3.02240514e-004 -3.13884928e-004
      -4.31705470e-004 -3.20004736e-004 -3.48436926e-003
      -5.77872898e-003 -5.92665933e-003 -1.11000752e-003
      -3.13429395e-004 -3.09556926e-004 -3.70758702e-004
      -1.19200314e-003 -6.71768503e-004 -3.66892992e-003
      -5.62558603e-003 -5.29082306e-003 -4.30527813e-004
      -1.04363011e-004 -1.03591861e-004 -9.35524469e-004
      -1.66259217e-003 -1.26670790e-003 -3.66531196e-003
      -4.51329909e-003 -5.02634421e-003 -3.52732255e-004
      -6.90741072e-005 -5.64228976e-005 -1.35913561e-003
      -1.78972713e-003 -1.29608274e-003 -4.42346046e-003
      -5.64398663e-003 -5.65768406e-003 -1.29346887e-003
      -3.24335560e-004 -4.31936554e-004 -9.95371607e-004
      -2.60169804e-003 -1.74533180e-003 -3.93845653e-003
      -5.25620487e-003 -4.46431758e-003 -4.87234036e-004
      -1.61115837e-004 -1.65250036e-004 -2.14678166e-003
      -2.35504215e-003 -1.54035608e-003 -4.35199402e-003
      -4.89051314e-003 -5.47646638e-003 -1.01005868e-003
      -2.67933268e-004 -1.74772489e-004 -2.23528803e-003
      -2.22636620e-003 -5.52099664e-004 -5.54429484e-004
      -5.82461420e-004 -9.36997065e-004 -1.46148668e-004
      -9.95446972e-005 -5.80110500e-005 -1.96716259e-003
      -3.22942482e-003 -1.21857517e-003 -2.89963209e-003
      -4.73179715e-003 -5.35376463e-003 -9.71995993e-004
      -6.66813983e-004 -3.60021135e-004 -3.23093496e-003
      -3.12871952e-003 -9.47165594e-004 -9.49972717e-004
      -1.69331999e-003 -2.05313601e-003 -3.13496770e-004
      -3.17129918e-004 -2.14421394e-004 -3.14593245e-003
      -2.69779051e-003 -1.05620828e-003 -1.11861620e-003
      -7.16493989e-004 -4.84199554e-004 -1.60964501e-005
      -1.42168628e-005 -2.16993612e-005 -2.10085325e-003
      -2.75043934e-003 -4.62099211e-004 -4.02715144e-004
      -4.60736774e-004 -6.97568525e-004 -4.02060687e-005
      -4.95425957e-005 -6.68895373e-005 -2.72913114e-003
      -3.30476859e-003 -1.23735273e-003 -1.10599399e-003
      -2.11513205e-003 -1.32439565e-003 -1.86851365e-004
      -1.21611927e-004 -7.54119756e-005 -3.30476859e-003
      -3.30476859e-003 -5.87496674e-004 -5.66063623e-004
      -1.11321418e-003 -1.32904889e-003 -1.96481225e-004
      -6.01306783e-005 -5.92389006e-005 -3.30476859e-003
      -2.96538812e-003 -9.76291078e-004 -7.09857384e-004
      -7.37177499e-004 -4.65259131e-004 -6.55229524e-005
      -4.57797796e-005 -1.22698533e-004 -2.95207184e-003
      -2.42330064e-003 -1.54677138e-003 -1.64527574e-003
      -1.78849488e-003 -7.22833385e-004 -1.72829983e-004
      -1.91173298e-004 -3.34089767e-004 -2.45662383e-003
      -3.24516138e-003 -3.94628994e-004 -4.52780456e-004
      -5.55754639e-004 -7.00426812e-004 -2.75993865e-004
      -1.62023483e-004 -2.38390232e-004 -3.20386607e-003
      -3.37397400e-003 -9.75773495e-004 -1.02892262e-003
      -1.20981201e-003 -1.02992693e-003 -4.40533360e-004
      -3.09493626e-004 -2.65239156e-004 -3.04785115e-003
      -2.75031617e-003 -1.00616878e-003 -9.26206412e-004
      -1.24881847e-003 -4.22027020e-004 -1.12803784e-004
      -1.69044521e-004 -1.93705418e-004 -2.78628129e-003
      -2.93430523e-003 -6.27141504e-004 -5.01370989e-004
      -8.66005896e-004 -4.75653505e-004 -8.82370441e-005
      -1.18706928e-004 -1.36597155e-004 -2.80497409e-003
      -3.38131073e-003 -6.50914677e-004 -6.00016152e-004
      -7.79441034e-004 -8.29525292e-004 -4.63049189e-004
      -3.95635667e-004 -1.83515062e-004 -2.88997730e-003
      -3.58153763e-003 -5.54575759e-004 -4.45933023e-004
      -7.87139114e-004 -1.27742125e-003 -5.93058940e-004
      -6.53795898e-004 -6.28459267e-004 -3.46170878e-003
      -2.09821179e-003 -1.44494860e-003 -1.49133534e-003
      -1.95812574e-003 -1.20966358e-003 -1.77533497e-004
      -9.29021480e-005 -1.13061637e-004 -2.09866953e-003
      -2.78691761e-003 -9.82958358e-004 -1.40823447e-003
      -1.73050293e-003 -1.83700153e-003 -1.34384295e-003
      -1.36407453e-003 -6.26976893e-004 -2.83942209e-003
      -2.67540989e-003 -3.74869793e-004 -3.07284237e-004
      -4.53535089e-004 -1.05000520e-003 -3.72892187e-004
      -2.31934668e-004 -2.05204255e-004 -2.56923772e-003
      -2.25540553e-003 -7.30474771e-004 -6.37871271e-004
      -8.05443444e-004 -1.38877856e-003 -7.98059104e-004
      -5.24322677e-004 -3.75071162e-004 -2.30627856e-003
      -3.42762272e-004 -4.90716950e-004 -5.81288757e-003
      -6.18959777e-003 -6.27843803e-003 -6.76129886e-004
      -5.12390397e-004 -2.50560202e-004 -2.66252231e-004
      -1.36213377e-003 -6.08226343e-004 -2.77404184e-003
      -4.53662500e-003 -6.25197589e-003 -2.74551520e-003
      -1.18409446e-003 -1.15780556e-003 -1.72907976e-003
      -1.02786557e-003 -1.14907580e-003 -4.98693623e-003
      -5.94389299e-003 -5.09599922e-003 -4.82075295e-004
      -5.33978164e-004 -2.57567182e-004 -6.40995102e-004
      -1.14628416e-003 -8.65617534e-004 -1.58411195e-003
      -2.27579777e-003 -4.98191733e-003 -2.38068821e-003
      -1.26850104e-003 -7.32284156e-004 -1.39584206e-003
      -2.54217023e-003 -1.57157308e-003 -2.71797599e-003
      -4.28899610e-003 -5.65362722e-003 -3.01371422e-003
      -1.12682430e-003 -1.04981195e-003 -2.19348958e-003
      -2.71696341e-003 -1.88391120e-003 -2.49112910e-003
      -3.47303879e-003 -4.43174131e-003 -1.15492474e-003
      -7.14025926e-004 -5.36866311e-004 -2.49867002e-003
      -3.07652308e-003 -8.22881004e-004 -9.34936223e-004
      -1.09480962e-003 -4.54554614e-003 -3.28181777e-003
      -2.28706049e-003 -1.20483257e-003 -3.25344829e-003
      -5.28560625e-003 -1.00266119e-003 -9.17436031e-004
      -9.97163006e-004 -3.89858428e-003 -2.36127060e-003
      -1.57107343e-003 -1.21776783e-003 -5.17870998e-003
      -3.43191298e-003 -8.45934846e-004 -9.81298392e-004
      -1.51194760e-003 -1.52375957e-003 -3.38617770e-004
      -4.93661384e-004 -3.22152802e-004 -3.47095099e-003
      -3.48726660e-003 -7.89926387e-004 -6.13576267e-004
      -9.68454988e-004 -7.26330152e-004 -9.40940226e-005
      -6.95318959e-005 -6.20512874e-005 -3.45591060e-003
      -6.83432724e-003 -9.13829834e-004 -8.56067811e-004
      -8.36534076e-004 -1.60169066e-003 -6.24629378e-004
      -8.12313403e-004 -8.10359779e-004 -6.70402078e-003
      -6.76228665e-003 -6.51872309e-004 -6.31846313e-004
      -7.73968233e-004 -8.26918229e-004 -4.11230722e-004
      -2.91197211e-004 -4.30410873e-004 -6.70994492e-003
      -3.12296953e-003 -2.12635263e-003 -1.56436302e-003
      -2.21914588e-003 -1.32933958e-003 -1.12992668e-004
      -8.08999757e-005 -7.20183161e-005 -2.99158832e-003
      -3.24369990e-003 -6.75902469e-004 -5.38780238e-004
      -1.25700433e-003 -7.49435043e-004 -1.24150378e-004
      -9.94885559e-005 -1.09611639e-004 -3.20749218e-003
      -6.84045861e-003 -7.01990793e-004 -7.15382630e-004
      -8.09342251e-004 -1.00286771e-003 -7.55460351e-004
      -4.91328130e-004 -5.35110477e-004 -6.74119266e-003
      -6.63718674e-003 -8.81758693e-004 -8.03490111e-004
      -3.17421218e-004 -6.77014817e-004 -4.79445560e-004
      -3.53261450e-004 -3.28557740e-004 -6.71767537e-003
      -2.99179717e-003 -5.37355780e-004 -5.23756258e-004
      -4.61138756e-004 -8.08515586e-004 -6.11463969e-004
      -5.26086194e-004 -4.19612566e-004 -2.95334216e-003
      -3.04929237e-003 -9.74082446e-004 -6.84639148e-004
      -8.32569960e-004 -1.35160424e-003 -1.58781034e-003
      -1.19703496e-003 -6.48783694e-004 -2.93800561e-003
      -6.98057795e-003 -6.82071492e-004 -9.67327971e-004
      -6.09179726e-004 -1.24570995e-003 -8.51365156e-004
      -6.90095825e-004 -8.34243430e-004 -7.23056588e-003
      -7.05088675e-003 -8.97020684e-004 -1.34744309e-003
      -8.95526784e-004 -1.76095089e-003 -1.31775590e-003
      -9.60460864e-004 -8.16769316e-004 -6.97901705e-003
      -2.36783456e-003 -7.52944616e-004 -5.38601889e-004
      -7.86964258e-004 -1.53484487e-003 -1.31762039e-003
      -1.20954763e-003 -9.58640769e-004 -1.96246896e-003
      -2.35302257e-003 -9.02441912e-004 -6.69865985e-004
      -7.95886677e-004 -1.67185755e-003 -1.02341652e-003
      -9.02962813e-004 -1.09894015e-003 -2.28529237e-003
      -6.99528866e-003 -7.97020853e-004 -1.00991072e-003
      -1.18742965e-003 -1.51789305e-003 -1.27485290e-003
      -1.25806604e-003 -1.14039285e-003 -6.82651298e-003
      -7.01812468e-003 -1.01941335e-003 -1.25905382e-003
      -9.17341851e-004 -1.62325148e-003 -1.05079345e-003
      -9.59804282e-004 -1.05414342e-003 -6.94138091e-003
      -2.25608516e-003 -9.35209682e-004 -7.69184320e-004
      -1.10906560e-003 -1.85539760e-003 -9.93122463e-004
      -6.59148791e-004 -7.80350412e-004 -2.52265087e-003
      -2.48518027e-003 -8.64964211e-004 -1.11003383e-003
      -1.51221373e-003 -2.07152101e-003 -1.65018346e-003
      -1.11806288e-003 -1.15264708e-003 -3.12903570e-003
      -7.05456827e-003 -6.19316357e-004 -8.36579420e-004
      -6.10773801e-004 -1.81012729e-003 -8.76554928e-004
      -4.32460598e-004 -3.89855064e-004 -6.82550482e-003
      -7.27001810e-003 -7.88602221e-004 -8.80897278e-004
      -1.29455735e-003 -2.93897861e-003 -2.51672626e-003
      -1.51707616e-003 -1.91556569e-003 -7.02557852e-003
      -3.41304229e-003 -1.84170669e-003 -6.36347057e-003
      -7.12281419e-003 -6.99483929e-003 -1.23386330e-003
      -9.26730630e-004 -6.77193399e-004 -2.69319024e-003
      -2.99534691e-003 -1.34837045e-003 -1.51939737e-003
      -1.92121335e-003 -4.34603542e-003 -3.25294398e-003
      -1.89278997e-003 -1.28894649e-003 -3.03223636e-003
      -7.22012541e-004 -3.90537927e-004 -2.70260056e-003
      -4.40463424e-003 -5.66627644e-003 -1.12659670e-003
      -5.95543301e-004 -3.85352061e-004 -6.69708650e-004
      -7.02137768e-004 -4.34111163e-004 -6.04707864e-004
      -4.73744323e-004 -1.18329015e-003 -6.87059830e-004
      -4.78392059e-004 -4.29102540e-004 -6.87106920e-004
      -5.18132513e-003 -1.05225050e-003 -8.27292155e-004
      -6.98570453e-004 -4.18096734e-003 -3.90593591e-003
      -2.61389650e-003 -1.99952186e-003 -5.90829458e-003
      -6.89483434e-003 -1.77227240e-003 -1.01323379e-003
      -1.26015709e-003 -4.06553829e-003 -3.24936165e-003
      -2.36645760e-003 -2.76509929e-003 -6.78641163e-003
      -1.18213100e-003 -1.44523379e-004 -1.70565545e-004
      -1.53921443e-004 -7.69970124e-004 -5.26470074e-004
      -4.98504960e-004 -5.41238929e-004 -1.51923846e-003
      -4.37978003e-003 -8.40847439e-004 -6.21808809e-004
      -1.49208109e-003 -2.23459653e-003 -1.49864017e-003
      -1.95291988e-003 -1.24296616e-003 -4.16738074e-003
      -5.97020844e-003 -9.47675144e-004 -8.03472358e-004
      -7.73135631e-004 -1.79405569e-003 -7.91676634e-004
      -7.23678619e-004 -1.02921203e-003 -6.00568531e-003
      -5.98033890e-003 -8.94830038e-004 -9.98120522e-004
      -1.44726445e-003 -1.89395039e-003 -1.46959559e-003
      -1.38034532e-003 -1.33820227e-003 -6.14554528e-003
      -4.04095650e-003 -7.17234216e-004 -6.85289444e-004
      -1.40847708e-003 -1.65798410e-003 -1.08764763e-003
      -1.07954955e-003 -7.77397247e-004 -4.13268385e-003
      -4.96487133e-003 -9.43974417e-004 -7.95490691e-004
      -1.50646525e-003 -1.78485014e-003 -1.68437709e-003
      -1.59639760e-003 -1.17833517e-003 -4.94518643e-003
      -5.67967072e-003 -9.76963784e-004 -1.13479677e-003
      -1.11079402e-003 -1.75887079e-003 -9.72566078e-004
      -9.33369156e-004 -6.63631072e-004 -5.70944557e-003
      -5.96763939e-003 -1.03533466e-003 -1.21873675e-003
      -9.28416615e-004 -1.62875000e-003 -1.37984217e-003
      -1.44397235e-003 -9.55388707e-004 -6.37745392e-003
      -4.28122142e-003 -8.81738728e-004 -6.40738057e-004
      -8.85832531e-004 -1.66492362e-003 -1.15273683e-003
      -9.95733077e-004 -6.74360956e-004 -4.26758314e-003
      -4.52175271e-003 -8.51372024e-004 -9.15957906e-004
      -1.24895270e-003 -1.57648360e-003 -1.55405537e-003
      -1.42124260e-003 -1.29381311e-003 -5.20655094e-003
      -6.24998240e-003 -7.12070439e-004 -1.01374427e-003
      -9.90801724e-004 -1.42845779e-003 -1.11013500e-003
      -1.08582387e-003 -9.10216069e-004 -6.65857084e-003
      -6.18998799e-003 -8.11381266e-004 -1.26587553e-003
      -1.20977638e-003 -1.63510710e-003 -8.22678499e-004
      -5.95317746e-004 -4.76584595e-004 -6.08474435e-003
      -4.25039977e-003 -7.95638014e-004 -9.68220935e-004
      -1.30169641e-003 -1.67258724e-003 -1.69771607e-003
      -1.13727490e-003 -1.58229226e-003 -4.89065424e-003
      -4.33379458e-003 -7.31539447e-004 -1.08286052e-003
      -1.27933279e-003 -1.61932514e-003 -1.08668639e-003
      -5.98026207e-004 -8.32943304e-004 -4.42142598e-003
      -6.15771301e-003 -1.10247522e-003 -1.76654872e-003
      -1.69806334e-003 -1.49343151e-003 -8.91188625e-004
      -3.87617620e-004 -2.89835822e-004 -5.80392126e-003
      -6.21642778e-003 -7.76364177e-004 -1.16361317e-003
      -8.96757643e-004 -1.51011767e-003 -8.73062527e-004
      -4.02286911e-004 -3.17252940e-004 -5.76740643e-003
      -4.39531868e-003 -9.94000584e-004 -1.30856584e-003
      -1.25993334e-003 -1.42105261e-003 -6.10617746e-004
      -2.65343348e-004 -2.96231039e-004 -4.50267736e-003
      -5.38401306e-003 -1.05922378e-003 -1.17342710e-003
      -1.42039917e-003 -1.58762268e-003 -8.44320690e-004
      -2.25195763e-004 -3.55730619e-004 -5.38614765e-003
      -5.36219403e-003 -2.82575609e-004 -4.26234299e-004
      -2.28092831e-004 -8.09574849e-004 -4.21744277e-004
      -2.25470343e-004 -1.60913856e-004 -5.16991504e-003
      -5.21420641e-003 -4.12202906e-004 -6.93363254e-004
      -1.43949303e-003 -4.34756419e-003 -2.53282022e-003
      -1.48851098e-003 -1.11566088e-003 -5.08935982e-003
      -4.87875100e-003 -2.90348660e-004 -2.58758519e-004
      -5.42493362e-004 -1.23894890e-003 -4.97481553e-004
      -2.04572643e-004 -3.18965467e-004 -4.99047711e-003
      -4.33565164e-003 -1.08652213e-003 -2.39528762e-003
      -2.76828534e-003 -5.94540173e-003 -3.10229464e-003
      -1.94275484e-003 -9.63076251e-004 -4.93800780e-003
      -8.92003824e-004 -4.19216900e-004 -1.28692121e-003
      -3.43235838e-003 -6.66646659e-003 -2.94344756e-003
      -1.73117896e-003 -6.87154592e-004 -9.65614454e-004
      -1.03998091e-003 -4.06979845e-004 -5.41047775e-004
      -7.13741640e-004 -1.53680053e-003 -6.77160278e-004
      -5.28077770e-004 -3.45687906e-004 -9.16852383e-004
      -1.16199744e-003 -6.65730971e-004 -1.52895099e-003
      -3.27748386e-003 -6.31209696e-003 -4.24091704e-003
      -3.06802639e-003 -1.02371944e-003 -1.08822179e-003
      -1.00721419e-003 -6.95861527e-004 -8.55951046e-004
      -1.01481506e-003 -2.19502952e-003 -7.48004182e-004
      -7.67563877e-004 -4.59475617e-004 -9.42211074e-004
      -3.34989163e-003 -1.09504152e-003 -1.84983271e-003
      -2.57081096e-003 -4.75701597e-003 -1.84968137e-003
      -1.35319366e-003 -7.20432261e-004 -2.81750597e-003
      -3.67858796e-003 -6.78959419e-004 -1.59571134e-003
      -2.74266698e-003 -3.26659763e-003 -1.29446201e-003
      -1.42961659e-003 -6.49674737e-004 -3.73687176e-003
      -1.98903866e-003 -1.45234133e-003 -1.91833009e-003
      -2.92631169e-003 -4.64356691e-003 -2.71905283e-003
      -1.72550336e-003 -9.68649576e-004 -1.82838994e-003
      -1.28316635e-003 -1.27440167e-003 -2.46462948e-003
      -2.47533643e-003 -3.10760015e-003 -9.40465950e-004
      -1.14557531e-003 -9.85636376e-004 -1.42579991e-003
      -4.36015800e-003 -3.25995235e-004 -6.90921443e-004
      -1.25547638e-003 -2.41537974e-003 -8.65156238e-004
      -6.71344402e-004 -5.88325493e-004 -4.51837154e-003
      -5.03876898e-003 -6.51636452e-004 -7.07249332e-004
      -1.17544236e-003 -1.99731765e-003 -2.01241416e-003
      -1.31956721e-003 -1.29546318e-003 -5.00884186e-003
      -1.84505282e-003 -9.19828366e-004 -1.16406719e-003
      -1.56742637e-003 -2.22418876e-003 -7.99811678e-004
      -6.22806372e-004 -6.57055061e-004 -1.65632553e-003
      -2.73929280e-003 -1.67437247e-003 -1.38519984e-003
      -1.39271375e-003 -1.89976837e-003 -1.56328082e-003
      -1.11091882e-003 -1.10143353e-003 -2.66092923e-003
      -4.86115413e-003 -7.14339898e-004 -6.57150522e-004
      -6.47343928e-004 -1.34097552e-003 -1.14482257e-003
      -7.90754508e-004 -6.88070431e-004 -4.75618290e-003
      -4.91271960e-003 -5.57755528e-004 -4.98969399e-004
      -6.22148917e-004 -2.05891510e-003 -1.16263481e-003
      -5.12437895e-004 -4.46009974e-004 -5.00448188e-003
      -2.96275760e-003 -1.25271326e-003 -1.09091471e-003
      -7.79702212e-004 -9.99545213e-004 -8.58934247e-004
      -5.72658901e-004 -4.88473044e-004 -2.72897934e-003
      -2.60679494e-003 -1.87038619e-003 -1.87895214e-003
      -1.84120901e-003 -1.87230413e-003 -5.57470368e-004
      -6.24080247e-004 -6.33172109e-004 -2.59538763e-003
      -4.67638439e-003 -5.77002706e-004 -3.18132865e-004
      -1.70351937e-004 -7.85665179e-004 -6.26918511e-004
      -2.82937312e-004 -3.98503355e-004 -4.65079909e-003
      -4.83748456e-003 -4.11931338e-004 -2.86968570e-004
      -2.59485212e-004 -4.89119731e-004 -4.15834307e-004
      -2.56434229e-004 -4.69700317e-004 -4.81550908e-003
      -2.97893095e-003 -1.52574445e-003 -1.19944871e-003
      -1.72142079e-003 -7.00434321e-004 -1.77783324e-004
      -1.95461136e-004 -2.19384237e-004 -2.91909464e-003
      -2.98826303e-003 -1.28388603e-003 -9.06730944e-004
      -1.31351885e-003 -4.22118494e-004 -1.02745922e-004
      -1.48024978e-004 -3.40650993e-004 -2.98826303e-003
      -5.01633575e-003 -5.50387893e-004 -3.44818051e-004
      -4.09093394e-004 -1.55558344e-004 -3.39311991e-005
      -3.71117058e-005 -9.78256285e-005 -4.95407078e-003
      -6.24774583e-003 -9.75548464e-004 -5.14532789e-004
      -4.63997101e-004 -1.14406238e-003 -1.97467052e-005
      -8.66343180e-006 -4.81505340e-005 -6.17206376e-003
      -2.53645750e-003 -1.12422695e-003 -1.09020097e-003
      -1.62432285e-003 -3.85829917e-004 -1.87651767e-005
      -3.64214029e-005 -1.09874702e-004 -2.50952295e-003
      -2.44623702e-003 -1.30306836e-003 -1.25786685e-003
      -1.91936875e-003 -3.36270873e-003 -4.01621801e-005
      -1.77076836e-005 -4.96136381e-005 -2.31509469e-003
      -3.09895631e-003 -3.24964029e-004 -1.85408033e-004
      -1.76849586e-004 -4.60091745e-004 -2.39767833e-004
      -1.46191422e-004 -1.95558518e-004 -3.11201857e-003
      -3.11611174e-003 -6.98426506e-004 -1.73065672e-003
      -3.20115266e-003 -5.86761255e-003 -2.81987712e-003
      -1.25420396e-003 -5.32587757e-004 -3.14598111e-003
      -2.42758892e-003 -3.09141848e-004 -2.76203529e-004
      -4.51376633e-004 -4.50186664e-004 -8.64733302e-005
      -4.75924717e-005 -6.55727999e-005 -2.38105515e-003
      -2.67019053e-003 -6.53510040e-004 -1.63264875e-003
      -2.40490190e-003 -5.77579252e-003 -4.23135515e-003
      -2.15478893e-003 -2.79109750e-004 -2.62322603e-003
      -1.05593912e-003 -6.02329383e-004 -2.50743353e-003
      -3.84953874e-003 -5.65850828e-003 -3.36128683e-003
      -2.21764063e-003 -9.53793118e-004 -1.13280024e-003
      -1.25909713e-003 -9.37769830e-004 -1.10253715e-003
      -9.72743903e-004 -2.16173148e-003 -6.78823271e-004
      -7.41195166e-004 -4.55427187e-004 -1.13247451e-003
      -3.20343697e-003 -4.93051484e-004 -1.98378111e-003
      -3.38391587e-003 -5.83886588e-003 -3.97369219e-003
      -1.99024309e-003 -1.40255224e-003 -3.67776211e-003
      -3.03775165e-003 -2.02048034e-003 -2.28235219e-003
      -2.61923834e-003 -2.54810601e-003 -8.36713181e-004
      -5.64572518e-004 -3.80850659e-004 -3.05973599e-003
      -2.15823296e-003 -1.55081751e-003 -1.94621831e-003
      -2.88432720e-003 -5.21037308e-003 -2.07045930e-003
      -1.13581808e-003 -8.81068816e-004 -1.85870775e-003
      -2.04744912e-003 -6.04743254e-004 -5.62749279e-004
      -3.55454657e-004 -8.65345821e-004 -2.52920669e-004
      -2.55649968e-004 -2.62959657e-004 -1.77944882e-003
      -4.78050206e-003 -1.98439392e-003 -2.27355259e-003
      -3.86733864e-003 -5.37241576e-003 -2.86828494e-003
      -1.49989850e-003 -1.05931028e-003 -4.61613201e-003
      -4.42150189e-003 -8.14060681e-004 -8.12879181e-004
      -9.84620769e-004 -1.14140869e-003 -4.29417210e-004
      -4.06998006e-004 -5.18073153e-004 -4.45718411e-003
      -1.99836353e-003 -5.26889169e-004 -6.11163618e-004
      -7.11405359e-004 -8.31426412e-004 -2.28619974e-004
      -1.89109793e-004 -2.59917026e-004 -1.77814090e-003
      -3.57325911e-003 -8.95054894e-004 -9.45319713e-004
      -1.22558267e-003 -9.61249811e-004 -2.69087061e-004
      -2.29796191e-004 -3.14748846e-004 -3.44287185e-003
      -4.23530024e-003 -1.24922639e-003 -1.23530254e-003
      -1.58968754e-003 -1.11128262e-003 -2.39767949e-004
      -3.25968052e-004 -3.84086219e-004 -4.29693703e-003
      -4.31460654e-003 -1.95219216e-003 -1.74382457e-003
      -2.39425432e-003 -1.54055574e-003 -4.74483095e-004
      -4.17672738e-004 -3.97072930e-004 -4.31460654e-003
      -3.46598797e-003 -6.79604476e-004 -6.24338049e-004
      -8.47525662e-004 -6.91290188e-004 -2.82714376e-004
      -1.26723127e-004 -1.62512486e-004 -3.23822210e-003
      -2.57940241e-003 -7.74994725e-004 -8.59328662e-004
      -1.24850310e-003 -7.37499329e-004 -1.34265982e-004
      -1.22246056e-004 -1.60669864e-004 -2.53009796e-003
      -4.38933354e-003 -1.23308261e-003 -9.67031519e-004
      -1.29411672e-003 -9.70292895e-004 -3.52867792e-004
      -2.96917540e-004 -2.62442307e-004 -4.50744107e-003
      -4.50550066e-003 -1.15728483e-003 -9.88889020e-004
      -8.40415945e-004 -6.48817979e-004 -2.28838428e-004
      -2.81489687e-004 -2.58967309e-004 -4.50744107e-003
      -2.07191333e-003 -1.29394152e-003 -1.39597862e-003
      -1.95677835e-003 -7.09843298e-004 -4.68877406e-005
      -9.37264631e-005 -1.02798527e-004 -2.05136044e-003
      -2.08156626e-003 -7.98988738e-004 -6.97758747e-004
      -1.06752047e-003 -4.15395014e-004 -4.33248388e-005
      -1.40044882e-004 -1.18060350e-004 -2.02430086e-003
      -4.48627258e-003 -1.01916387e-003 -1.12883665e-003
      -1.18636352e-003 -6.20054780e-004 -1.19249817e-004
      -1.79521536e-004 -1.76193513e-004 -4.04453510e-003
      -3.91092896e-003 -1.60593272e-003 -1.34895474e-003
      -1.03479903e-003 -5.35722589e-004 -1.10761510e-004
      -2.44038674e-004 -1.30661239e-004 -3.74444644e-003
      -2.18412559e-003 -1.40434096e-003 -1.32115488e-003
      -1.77902426e-003 -5.52778190e-004 -7.45354191e-005
      -1.55565343e-004 -1.35090886e-004 -2.15092581e-003
      -2.30390299e-003 -1.16818806e-003 -1.30615977e-003
      -2.01399834e-003 -6.43724995e-003 -9.90366389e-005
      -8.44856768e-005 -8.33799859e-005 -2.28664628e-003
      -3.79881356e-003 -1.01461436e-003 -5.20921662e-004
      -2.87264062e-004 -3.77199001e-004 -1.35514449e-004
      -2.29340832e-004 -1.71232896e-004 -3.58847086e-003
      -3.22821131e-003 -1.35212438e-003 -8.53248872e-004
      -5.44556766e-004 -5.48836496e-003 -1.13101742e-004
      -1.52439272e-004 -1.84268050e-004 -3.08941933e-003
      -2.99154641e-003 -4.98017180e-004 -5.64490154e-004
      -7.24312442e-004 -9.97832045e-004 -2.50221696e-004
      -1.80630872e-004 -1.29598557e-004 -2.96229729e-003
      -3.72878602e-003 -8.85058253e-004 -1.09594641e-003
      -1.86242419e-003 -5.31982305e-003 -4.54562716e-003
      -3.00631579e-003 -5.19169611e-004 -3.67077137e-003
      -2.46172608e-003 -7.02726655e-004 -5.39633795e-004
      -6.60479418e-004 -7.92510866e-004 -2.59304914e-004
      -1.93300846e-004 -1.08253422e-004 -2.28312286e-003
      -3.22828768e-003 -1.66737102e-003 -1.85317884e-003
      -2.81320512e-003 -5.05899917e-003 -2.40180548e-003
      -1.10035180e-003 -3.41583363e-004 -3.06432438e-003
      -3.46086989e-003 -2.56423460e-004 -2.11846898e-004
      -4.81420080e-004 -3.32318735e-003 -3.07572517e-003
      -1.54960749e-003 -9.34922136e-004 -3.91000416e-003
      -4.05004388e-003 -1.07471994e-003 -1.17247819e-003
      -1.61663606e-003 -6.28699490e-004 -2.85777700e-004
      -2.45985400e-004 -2.65262061e-004 -4.11799317e-003
      -6.99574873e-003 -2.87780596e-004 -1.33512920e-004
      -2.60847068e-004 -2.42763176e-003 -4.25505918e-003
      -2.56767706e-003 -1.71176100e-003 -7.09511107e-003
      -7.07135815e-003 -8.73226440e-004 -6.44051703e-004
      -5.18081768e-004 -5.17303590e-004 -2.74052203e-004
      -2.76048959e-004 -4.11422137e-004 -6.96939230e-003
      -4.38288599e-003 -1.45786989e-003 -1.88742485e-003
      -1.86784251e-003 -7.01487006e-004 -1.26342245e-004
      -7.97223111e-005 -1.55234913e-004 -4.27252520e-003
      -4.64849267e-003 -6.04459434e-004 -5.16794389e-004
      -7.17508956e-004 -3.83689214e-004 -7.62738418e-005
      -4.14891074e-005 -9.81073317e-005 -4.60003642e-003
      -7.11918669e-003 -1.01887027e-003 -8.93153774e-004
      -8.60729604e-004 -7.22791883e-004 -3.73396411e-004
      -2.46277894e-004 -4.20464319e-004 -6.99377945e-003
      -6.63095154e-003 -8.82082328e-004 -7.76364177e-004
      -7.32693647e-004 -8.63371009e-004 -5.44170616e-004
      -2.75413215e-004 -4.00835153e-004 -6.55608159e-003
      -4.78061102e-003 -1.41966960e-003 -1.01869099e-003
      -1.32762431e-003 -6.19466125e-004 -3.59333499e-005
      -2.59921162e-005 -5.05380158e-005 -4.76091681e-003
      -5.03180549e-003 -1.53629703e-003 -1.09853316e-003
      -1.89162465e-003 -8.23574548e-004 -2.99754174e-005
      -3.51762355e-005 -4.39010728e-005 -5.05550392e-003
      -6.63667731e-003 -7.14165682e-004 -5.07816498e-004
      -4.71706531e-004 -4.98999259e-004 -1.96118286e-004
      -8.57190971e-005 -1.69348990e-004 -6.45785499e-003
      -6.21077092e-003 -4.26268321e-004 -3.35113495e-004
      -1.73777211e-004 -1.79466428e-004 -2.90016724e-005
      -2.43128452e-005 -6.96744755e-005 -6.16195332e-003
      -5.11200307e-003 -1.66459265e-003 -1.14984915e-003
      -2.07502535e-003 -1.05834857e-003 -7.11542089e-005
      -1.00914229e-004 -1.44246820e-004 -5.11304382e-003
      -5.23266895e-003 -8.56352563e-004 -5.82137378e-004
      -4.05445317e-004 -3.07987793e-004 -6.72608730e-005
      -8.24429517e-005 -6.92869144e-005 -5.11540473e-003
      -6.00681640e-003 -3.83349048e-004 -2.39561879e-004
      -5.72918834e-005 -5.51813573e-004 -1.18543081e-004
      -1.30193483e-004 -3.06563423e-004 -5.97657030e-003
      -5.69275906e-003 -4.65290475e-004 -3.03245935e-004
      -2.52415863e-004 -6.59054436e-004 -1.00657810e-004
      -1.07958913e-004 -2.57955951e-004 -5.88395773e-003
      -5.30766090e-003 -1.81738148e-003 -1.52986019e-003
      -6.96993840e-004 -1.03180332e-003 -4.23510093e-004
      -4.60369047e-004 -3.57387966e-004 -5.28217992e-003
      -4.82272217e-003 -1.77136890e-003 -1.16662495e-003
      -6.39595673e-004 -1.84081716e-003 -6.63900166e-004
      -9.71453497e-004 -7.25792721e-004 -4.07252554e-003
      -5.34137525e-003 -3.45047243e-004 -3.30335752e-004
      -3.06033209e-004 -1.41787285e-003 -2.17400539e-005
      -3.77748329e-005 -5.30093239e-005 -5.33933518e-003
      -5.36258332e-003 -4.41292301e-004 -5.37657063e-004
      -4.03787330e-004 -1.70896950e-004 -2.23806292e-005
      -3.82941180e-005 -3.72882350e-005 -5.36582759e-003
      -4.93372558e-003 -2.38844194e-003 -9.10912233e-004
      -3.84089508e-004 -1.96552067e-003 -1.27685757e-003
      -1.73152878e-003 -1.46822049e-003 -4.43387358e-003
      -4.26355936e-003 -1.62640191e-003 -9.89736058e-004
      -5.84757072e-004 -2.59402371e-003 -7.37389026e-004
      -9.12178890e-004 -7.82807881e-004 -4.19114903e-003
      -5.47028007e-003 -2.94245343e-004 -2.72909587e-004
      -2.17251858e-004 -1.39298936e-004 -2.62565263e-005
      -5.52833153e-005 -3.96802752e-005 -5.40374871e-003
      -5.41570410e-003 -3.91690439e-004 -2.40192050e-004
      -2.18330126e-004 -1.04715000e-003 -6.52334929e-005
      -4.39393807e-005 -2.56547664e-005 -5.31543093e-003
      -4.62834211e-003 -1.12209178e-003 -1.31401874e-003
      -1.13311806e-003 -1.25355844e-003 -2.72649602e-004
      -7.86767458e-004 -3.86360625e-004 -4.61833645e-003
      -5.54643385e-003 -2.05412647e-003 -2.65207747e-003
      -3.24029033e-003 -4.02885163e-003 -1.01137324e-003
      -2.60686874e-003 -1.77047192e-003 -5.17317839e-003
      -4.38371906e-003 -5.31205558e-004 -5.07601886e-004
      -6.49096037e-004 -6.72606344e-004 -6.11203068e-005
      -2.86525719e-005 -1.90203955e-005 -4.31964407e-003
      -4.59254952e-003 -1.73271052e-003 -2.08410947e-003
      -2.85130576e-003 -2.16515176e-003 -2.20471076e-004
      -2.62818590e-004 -1.13300368e-004 -4.27978812e-003</_></support_vectors>
  <decision_functions>
    <_>
      <sv_count>1</sv_count>
      <rho>-7.3501365439387023e-001</rho>
      <alpha>
        1.</alpha>
      <index>
        0</index></_>
    <_>
      <sv_count>1</sv_count>
      <rho>-1.0615843880869256e+000</rho>
      <alpha>
        1.</alpha>
      <index>
        1</index></_>
    <_>
      <sv_count>1</sv_count>
      <rho>4.7832043080359304e-001</rho>
      <alpha>
        1.</alpha>
      <index>
        2</index></_></decision_functions></my_svm>
</opencv_storage>
